{
  "layers": [
    784,
    30,
    10
  ],
  "layerConfigs": [
    {
      "weights": [
        [
          0.000006973250186682978,
          -0.00001524274669467629,
          0.000048017575769306586,
          -0.000024692036077648627,
          -0.000010584570525309478,
          -0.000042844805563856816,
          0.000030304667127028018,
          -0.000016428261520069153,
          -0.000034133485658833875,
          -0.0000392733645577863,
          0.00002289994403038611,
          -0.0000017130034758404466,
          0.00003007239168486402,
          0.00001229508109837274,
          -0.000028536958737885688,
          -0.000042913654647418916,
          -0.00003841799230132237,
          -0.000003546411105767655,
          -0.0000030117860515537885,
          -0.00003113043015187324,
          -0.000010673377818362417,
          3.478506581088503e-7,
          -0.00001670519479329715,
          -0.00003191895505476641,
          0.000018407938835011728,
          0.000008746303208680883,
          0.000004757496217264956,
          0.000008209747788077481,
          -0.00003417981633275629,
          -0.000002807250354841351
        ],
        [
          -0.000032089799760729434,
          0.00004152906832055869,
          0.00000110661114386299,
          0.000045280451860080454,
          0.00002875545884650166,
          0.000043108210907060765,
          0.000005212100342321202,
          -0.000018981871921901216,
          0.000044221320145018964,
          -0.000035609869913241645,
          -0.000033915281444302315,
          -0.00003237700309134761,
          -0.000036808322092586906,
          0.00004793958619148775,
          0.000049784650097410864,
          -2.7591262442050457e-8,
          -0.0000338531772703279,
          0.00002029600019106199,
          -0.000012011528207126742,
          0.000044658793550990495,
          -0.000043861036158890544,
          0.000015945259724174666,
          0.000030508034373489213,
          -0.00004798532259297168,
          -0.000006479780173523331,
          0.00002166952924896821,
          0.000029607320756468125,
          0.00004917176372021639,
          0.000004306325184810644,
          -0.00004950913825767902
        ],
        [
          -0.000017615916178147728,
          0.000046986504454925024,
          0.00002916251868183457,
          -0.00000465843346938446,
          0.0000014257227042926202,
          0.000007215199810850014,
          0.000037842904834246884,
          0.00004363554255922963,
          -0.00001951847964153488,
          0.00002184186085773614,
          -0.00001858772442061314,
          -0.000008742456970701307,
          -0.000005771740861086827,
          0.000009271223056581479,
          -0.00001717099312078181,
          -0.00000384807933163327,
          -0.000023172385687688446,
          -0.0000035579649527843538,
          0.00003088861691554605,
          0.000026504951444347057,
          0.000012384862615349212,
          0.00003178651990336963,
          0.00003483696690635747,
          -0.00003609343562701042,
          -0.000003910975936090333,
          -0.000006458637440978476,
          0.000001317746649913687,
          0.000043170857554082035,
          0.00004485514904656529,
          0.00004482115427631679
        ],
        [
          0.000028447542001022064,
          -0.0000028695790661190434,
          -0.00003466948758371296,
          -0.000019175290249220978,
          0.000015136668803741604,
          0.000001060979574976817,
          0.000026126991534353738,
          -0.000030209643254754416,
          -0.000038023651442936424,
          0.00003195233334796424,
          -0.000010136524894894494,
          0.000027961986527563232,
          0.00003900741647274926,
          -0.00002698618030908033,
          0.000009596088604525232,
          0.00003989662250246877,
          -0.0000454630916386666,
          0.000044676865631652516,
          0.000010315995089135854,
          0.000011882888821943394,
          0.00003277896456004799,
          -0.000012378297103270408,
          -0.000001394655565603653,
          0.00004057760218908884,
          0.000003664160655902782,
          -0.000008006107574216004,
          2.511904699826317e-7,
          0.000018569651463664584,
          -0.000040745064960339405,
          0.00002818601653548143
        ],
        [
          -0.000009233382726588956,
          9.671078728290539e-10,
          0.000002539115346020515,
          0.00004081272999677461,
          -0.00003447767154874639,
          -0.00003678964459861655,
          -0.0000012741031677730774,
          -0.0000054279066872568335,
          -0.00004327909051498002,
          0.000047506376837421716,
          -0.000017155876907492117,
          -8.287690387167368e-7,
          -0.000013632542410470583,
          -0.000017627341200076963,
          0.00003382257043040957,
          -0.0000053983692829045135,
          0.000026513867422835923,
          0.000030036264526091138,
          0.000011452741284503976,
          0.00002551043708728429,
          -0.00004241091835090982,
          0.00003244382148497682,
          0.000011045376776954275,
          0.000007741652270742705,
          0.000043754863719376445,
          0.00004630567530847196,
          0.000017806812148058503,
          -0.0000064847921732154475,
          0.00003309199913723151,
          -0.00000848454453102916
        ],
        [
          -0.000012625349994554003,
          -0.000046768269050584644,
          -0.00002390104433430453,
          0.00000554954729178867,
          -0.00003632713631304358,
          -0.000020253838548807578,
          0.000010543047909526448,
          -0.000017603689236358088,
          0.000002787355295844218,
          0.00003406014456345852,
          0.000037874218118309774,
          -0.0000381221394205945,
          -0.00002404500558389273,
          -0.000025147898331005126,
          -0.000024207314852981754,
          -0.00002397453490550696,
          -0.000036904226190927145,
          -0.0000033733954428544656,
          -0.00003593564690775539,
          0.00004786752061160955,
          0.00001717045854310877,
          -0.00003908998618945409,
          -0.00002509403750970065,
          -0.0000365634676864903,
          0.000030252490231544304,
          0.00004653376453637188,
          -0.00003898761093676997,
          -0.00002225630674090222,
          -0.00002204027042524599,
          0.00003226798558872488
        ],
        [
          0.000046469383127796895,
          0.00004862056784820854,
          -0.00004554789057503112,
          -0.000022719136496568138,
          0.00002156465023432037,
          0.000013760689731884246,
          -0.000012533696931620919,
          -0.000002107053702503059,
          0.000005368014090183526,
          0.0000018462711769466233,
          -0.000043915140321813985,
          0.00002725407252714964,
          0.000006033533063236063,
          0.0000040053541781722046,
          -0.000017064484144375914,
          0.000006590691898467882,
          0.000040343167064013194,
          -0.00002872867277250062,
          -0.000035781884689868295,
          0.000002822263033893968,
          -0.000044070200042537477,
          -0.00002731285458362074,
          0.00004866218313859265,
          0.00000745410125573267,
          -0.00004234960693505334,
          0.00003219952969499551,
          0.00003496402616036436,
          -0.000010856778181791404,
          0.00004513993627485227,
          -0.0000426947889366043
        ],
        [
          -0.00001726650358447557,
          -0.000019953536354874157,
          0.00004525161893096703,
          -0.00004018649281126219,
          -0.000044946159132979193,
          -0.000006954008533307033,
          0.000032114037170864495,
          0.000021989023885950342,
          0.0000070312973338854555,
          -0.000044012997807103684,
          0.00003184256911476206,
          0.000004103485696908482,
          0.000028451723783502336,
          0.00003844205887255598,
          -0.00003109482401726269,
          -0.000019207255689084056,
          0.000036159069935261105,
          -0.0000153586054723313,
          -0.000022051480240096065,
          -0.00002747510492133085,
          -0.000033259435510516886,
          -0.00004746446511429989,
          0.00003903606903187671,
          -0.000025178982592139976,
          0.00003617808823362059,
          -7.563041044312602e-7,
          0.00002809579844496899,
          0.000029687517415160737,
          0.00003898202069824079,
          -0.000007762118991683753
        ],
        [
          0.0000014137631494155478,
          -0.00001480917084675466,
          0.000041136398202688265,
          0.000044574621379020196,
          -0.000023645349212790912,
          -0.000011758293930704733,
          -0.00004003452979610232,
          0.00004088503796642353,
          0.000047628152778905465,
          4.65268663377949e-7,
          -0.000028679462601961435,
          -0.000023961806807264786,
          0.000028287467189966264,
          -0.00004647281748370009,
          0.00000155452799941449,
          -0.000017580797150151706,
          -0.000046426453751805876,
          0.0000385826271420741,
          0.0000410399199899863,
          -7.680242061258724e-7,
          -0.0000014691600935928583,
          -0.000028604814925338706,
          -0.000013615928969346048,
          -0.000005173050187140715,
          0.000019713993257520302,
          -0.00002799165282030278,
          0.00004242135764682693,
          0.000008363476472616949,
          -0.00001910731536813943,
          0.000006816128411386524
        ],
        [
          -0.00003192184045309714,
          0.00001610107524555302,
          0.000046652238819287615,
          0.00004802704624110885,
          0.0000040556732559539286,
          -0.0000013784044927076967,
          -0.00004328651543645507,
          0.00003696248176430863,
          0.00004908808703080263,
          0.000030487059673404437,
          -0.000007297666420186833,
          -0.000014163172575935957,
          -0.000031076621700986975,
          -0.00004821097332243995,
          -0.000016887159639536,
          -0.00003388497265665591,
          -0.000019599709644003415,
          -0.00003788850924114071,
          0.000048527916470113034,
          0.000014596978127534399,
          0.00003734024199409749,
          0.000040976483476595105,
          0.0000283766269607272,
          0.00004834942647810967,
          0.000037471019316529985,
          -0.00003450819237552716,
          0.000041788447776288115,
          0.00002820564533584553,
          0.000033709275187905915,
          -0.00003875412928364817
        ],
        [
          -0.000016222588858802877,
          -0.00004035971974376848,
          -0.000039939828632367134,
          0.000032381913975607613,
          -0.0000258479718612028,
          0.00003741069067992109,
          -0.00003396960743250395,
          -0.000015998689747408547,
          -0.000017575750639112476,
          -0.000023282119611529928,
          0.000034088811284187395,
          0.00003376871670248403,
          0.000007120902233164727,
          -0.000017114030547884672,
          0.000048825362089829394,
          0.000049269274945139774,
          -0.00000899730426450891,
          0.000010546243757067276,
          0.000007678680197595011,
          -0.0000049928608175387804,
          0.000014812194402568269,
          0.0000370091101587239,
          0.000013851783803103257,
          0.000009408830379420085,
          -0.00001782327400350765,
          -0.000012463335212465076,
          0.000009019084522509457,
          -0.00004528415225862525,
          -0.00001797316321290434,
          0.000034829038603886555
        ],
        [
          0.0000012405520293802485,
          -0.000016115641001155635,
          0.000031530189753673343,
          -0.000042708568804104605,
          0.000017845063642689452,
          -0.00004659383633471692,
          0.000026667754413594458,
          0.00001255462676619119,
          0.00003587106166877552,
          -0.000022462925429643076,
          0.00004695115562560732,
          -0.000012947048219939172,
          -0.000011754002840760424,
          0.000007255240419400311,
          0.000025048365602177935,
          0.00004152091409895691,
          0.0000016833744062220602,
          -0.0000018436421982378271,
          -0.00003091757521882283,
          -0.00003623743762049072,
          0.00001258887890008098,
          -0.000044470577819661374,
          -0.00001502590218638844,
          -0.000008957585750800034,
          -0.000020015686920023356,
          7.269101245549248e-7,
          9.076954556626049e-8,
          -0.00003301168481804573,
          0.000026636867945287945,
          -0.000014231256169140894
        ],
        [
          -0.00004045615128351598,
          -0.00003851783332311814,
          -0.00003199086932782134,
          0.000012108653946595007,
          -0.00003493578751715985,
          0.000042938772052945644,
          -0.000034325099499430024,
          0.00004113472299859122,
          -0.000022184868508005267,
          -0.0000406318922213324,
          0.00001202044517355408,
          -0.00001021907642458264,
          0.00002849819836117607,
          0.00002083973559664328,
          0.00003777041207683395,
          0.000024779816250109737,
          -0.000008778974725346846,
          0.00003566182589885301,
          0.000028829559342968367,
          -0.00004971805873499757,
          -0.00001970162075934685,
          0.00002651938661754742,
          -0.000004867637881923762,
          0.000020108195260638324,
          -0.0000476803217359298,
          -0.000006963306034142903,
          -0.000025601221510595027,
          -0.00004127701463400616,
          0.000049945613426832696,
          0.00003778916117958857
        ],
        [
          0.00000954836778381458,
          -0.000036633999122241605,
          0.0000029681936485453876,
          -0.000012151594596391505,
          -0.00004349039221786687,
          0.00004515501882533369,
          0.000039376287174446614,
          0.000022862635511526967,
          -0.00004714705469490919,
          -0.00002906135697439821,
          -0.000019225396063093024,
          0.000040549938289181006,
          -0.000021063309109682876,
          -0.000038857813365355364,
          0.000008789979495574618,
          0.000030978948374721806,
          -0.000028782736338857025,
          -0.000024858192324512213,
          0.00003113905777075166,
          0.000006829778527352481,
          0.000028873348781621785,
          0.00002823417289636416,
          -0.000025141478511524806,
          0.00003484843557380128,
          -0.00002280850180705177,
          -0.000028362719348436636,
          0.00004172202572052536,
          -0.00001664224672090768,
          -0.000029781516260655318,
          0.00004282564654402817
        ],
        [
          0.000015097701492523539,
          -5.208948095439524e-7,
          -0.00003514815506165301,
          -0.000033334027797653004,
          -0.000024083651530399404,
          -0.000028846526866865248,
          0.00005173300618270476,
          0.000040995926034550714,
          0.00003973635398132852,
          0.000022023485404354405,
          0.00003381830372708786,
          -0.000047229467090522915,
          0.000018199313948003614,
          0.00001175898145594174,
          -0.00002362932895609163,
          0.0000046875281925529924,
          -0.00001986860430041982,
          0.00003217415781649079,
          -0.000006778351962563286,
          -0.000004284695881465439,
          0.0000239757444570568,
          0.0000518449507880742,
          -0.00004246486478031358,
          -0.00003629734014504631,
          -0.000004458188678603578,
          -0.000021678051820653252,
          -0.00003577469818780113,
          -0.00001357378246346563,
          0.00003871526915279196,
          -0.00002622609563630688
        ],
        [
          0.000029498647518497545,
          -0.00004528955707093534,
          -4.31739829562425e-7,
          0.00004193529806450269,
          0.00001532850186632327,
          -0.00004456040862410996,
          -0.000023669474795888857,
          0.00004962752058273699,
          0.000034341064068560524,
          0.000034657084325720184,
          -0.000011287023795951035,
          0.000003850111149580682,
          -0.000006489429849273396,
          -0.000041787421512771164,
          -0.00002423033235867193,
          -0.000003965814251606853,
          0.000026746935239113835,
          0.0000021484096268864962,
          0.000042683086250101575,
          0.00004054181394197665,
          -0.00002035465805037609,
          -0.00004194786707070836,
          -0.0000067262429467813995,
          0.000017832913840930236,
          0.000007332190952666395,
          -0.000013103713991963525,
          -0.000047641492140223674,
          -0.000004309200253672225,
          -0.000006995456161550844,
          -0.00003781300744157393
        ],
        [
          0.000035259218951941974,
          -0.00003155397272132854,
          -0.000047690881017020235,
          -0.00003102880594062227,
          -0.000042926762654288696,
          0.000020950503235778272,
          0.000013190400902702914,
          0.000006684690968997264,
          -0.000043037436854056186,
          -0.00002742771240761759,
          0.000037591681263805744,
          0.00004236017714823268,
          0.0000458859202093564,
          0.000044108234807965327,
          -0.000036287723177617725,
          0.000022738819279546418,
          0.000008423019048534442,
          0.000013467640330088759,
          0.00002970479707609368,
          0.00002436916604998931,
          0.000028849205174516768,
          -0.00003437749965698231,
          -0.00003946949295605924,
          0.000010375257186479204,
          0.000032568255958435156,
          0.000025084788068463215,
          -0.00003036923254088717,
          0.000013678721405935867,
          -0.000007912469143872447,
          -0.00002032936200001809
        ],
        [
          -0.00003214216167147523,
          0.00003780927092470792,
          0.000009555361892075042,
          -0.000048156179674365715,
          0.000032395700278170355,
          0.00004073115876298934,
          -0.0000023513643390593363,
          -0.000003866769017071237,
          -1.357271871693655e-8,
          -0.000010938901730363382,
          0.00004402502685484104,
          0.00004268710008110077,
          -3.963781958396417e-7,
          -0.0000117999440783364,
          -0.000005819327469224,
          0.00004825779103462551,
          0.00003743380705215942,
          0.00002832587868271099,
          -0.0000143822515162793,
          0.000020562185675632903,
          0.000016313377316423105,
          0.000018866761642137673,
          -0.00003303721906212236,
          0.00004272245720474379,
          0.00001114656155610667,
          -0.00004217223646743637,
          -0.00000430654303728506,
          -0.00000741428071789636,
          0.000013635715613249345,
          0.00002405779894803879
        ],
        [
          -0.00004032163584050321,
          -0.0000388255152015907,
          -0.00001015740178361031,
          -0.000027365073534329843,
          -0.000023082469734485423,
          0.000029027911617083113,
          -0.000006030666913842886,
          -0.00004498392687691073,
          -0.000030744262920843736,
          -0.000004221435977288745,
          0.00004878070022001093,
          -0.00003220435807610154,
          -0.000009226385082107002,
          -0.000016132866434622217,
          -0.000043805000882704606,
          -0.00001266944375965482,
          0.00003369981674744289,
          -0.000013499297730565419,
          -0.00003970799961022633,
          0.000023210286920012546,
          -0.000028864317053959177,
          0.00002186668191764487,
          0.00003871065839063963,
          -0.00004134843038515863,
          -0.00002556030993941982,
          -0.000015700310492752777,
          0.00003586365816040646,
          0.00003449019586151323,
          -0.00004116057059038236,
          0.000031819762271969255
        ],
        [
          0.000029564297780465986,
          0.00000581306909362973,
          0.00001540311435825461,
          -0.000033114004009020446,
          0.00004392597061376555,
          -0.000001879863418920902,
          0.000039607763795733694,
          0.00003996524161340014,
          0.000033944318714106436,
          0.00002474090531396358,
          -0.000015773984874632975,
          0.00004331508903612835,
          -0.000021017659301805437,
          0.000004600407885591396,
          0.000040501274464210125,
          -0.000014385554601090833,
          -0.000037834290990196576,
          0.000005231056056203953,
          0.00004577907805530479,
          -0.00004227210974253268,
          0.00004370251936377048,
          3.172098149562874e-7,
          0.000032911237861755293,
          -0.000016349577779628556,
          0.000011010326365506561,
          -0.000014620249690686493,
          0.000042611803657872823,
          -0.00003199404954860816,
          -0.000009725908745152178,
          -0.000026193625202725435
        ],
        [
          -0.000008363173087758313,
          -0.000022605573372903008,
          0.000004324622808067069,
          -0.0000343953857777052,
          -0.000034339946277370424,
          -0.000006240147357645865,
          0.00001929339065477236,
          -0.00002504546649284245,
          -0.000014619912762128152,
          -0.000026751358855737628,
          -0.00002035821476225568,
          -0.000018944928054718923,
          0.000013281603454825053,
          -0.000026435806517285364,
          0.000015409615316033664,
          0.000034265056838626814,
          -0.00003628458586288581,
          -0.000024580839754762684,
          0.000025296421479340547,
          -0.000016427232877584187,
          -0.00003408098528441805,
          0.000006359087557543996,
          0.000011517109255570213,
          0.000020956560624965692,
          0.000012675708936693587,
          -0.0000062316966303538334,
          0.000008765092773134198,
          0.000008137362575349783,
          -0.00002482273267514643,
          -0.00004593421375463038
        ],
        [
          -0.00004148757011458846,
          -3.9362454040339225e-7,
          -0.000021361206360562533,
          0.000015645809454696624,
          -0.000033542480529841326,
          -0.000008415795473976306,
          -0.00002166978079706583,
          0.000036798345892538945,
          -0.00004789051321196949,
          -0.000022186546196111378,
          -0.000028743295060389017,
          -0.0000472398551712959,
          0.000016644365894579272,
          0.00004528298817459704,
          -0.000004774938024960318,
          -3.503799816790165e-7,
          -0.000007858033140880805,
          0.000042747378050733164,
          0.000028283456662638317,
          -0.000005260642268465121,
          0.000034807817822048717,
          0.000007942596067519436,
          -0.00004421087188544226,
          0.000017096033005685628,
          -0.00001174549139180685,
          0.00004176139984098386,
          -0.000029317513110341743,
          -0.00002287139168877912,
          -0.000029270049717010195,
          -0.00004625970749447004
        ],
        [
          -0.000012458641985417883,
          0.000016767749348397177,
          -0.0000012115036105448952,
          -0.00002347095506837118,
          -0.00003342517514785046,
          0.0000037632450530694195,
          0.000041984585333449844,
          0.000010906803291177835,
          0.00004990859699114769,
          0.000049895377251350184,
          -0.000032365129266277084,
          -0.00002718280661077872,
          -0.0000366547798087266,
          0.000020297439941845675,
          0.000043012481916807845,
          -0.000023358165014115208,
          0.0000317378697481624,
          0.000030633191550403715,
          -0.0000063361353903039095,
          0.000011211350426197608,
          0.00003345068874017676,
          -0.000004550811774795038,
          0.000016716719194757524,
          -0.000037222504701758695,
          0.000042301468840075575,
          0.000011346105577244581,
          -0.00001245832362436603,
          -0.000013904778590998524,
          0.000016057593627114654,
          0.000002860265326698719
        ],
        [
          -0.00004939918295697896,
          0.00004135932248213765,
          -0.00000412003262400753,
          -0.00002370438725856585,
          0.0000316151130387299,
          -0.00003526842938583532,
          0.0000090858743576538,
          -0.000008077360985261882,
          0.000004437702489095963,
          0.0000063614897559557405,
          0.00003494190882898929,
          0.00003767529322218663,
          0.000009420390478911966,
          -0.000003267657020864978,
          -0.000046407004908753245,
          0.00002296757833684715,
          0.0000044436600348199296,
          0.000023258620973302625,
          -0.0000012313330451607208,
          -0.00004515646941910087,
          0.00000634063335675461,
          0.000028959910128879286,
          6.233675174185827e-7,
          -0.000048945590433040967,
          -0.000018145134176366852,
          -0.00001697540247327347,
          0.00003678496904540263,
          -0.0000033760906205649198,
          -0.000038190046358154815,
          -0.000033205196092941504
        ],
        [
          -0.000040268812506822485,
          0.00003359792102517651,
          0.000049482991559238124,
          -0.000024040789396688167,
          -0.000031962149452627455,
          0.000005488942672107599,
          0.00003154725362017827,
          -0.000019539128839633468,
          0.000045922463048174645,
          -0.00001633131586637606,
          -0.000022956646675114433,
          -0.000010705489312704653,
          -0.0000029114920106043885,
          0.000024801154594434417,
          -0.00004934608012651036,
          0.000018952418041196295,
          0.00001786476506743431,
          0.000003931529409588363,
          -0.00004045986832218163,
          0.0000025206575197559642,
          -0.000003636790407642354,
          0.000009181480447696288,
          -0.000016029516245328934,
          -0.00002538235194756244,
          -0.00001675470783810049,
          0.000007897508058756397,
          -0.000007486549859110592,
          -0.0000018448410721903618,
          -0.00004582621915102032,
          2.629630860256471e-7
        ],
        [
          -0.000020320442226955415,
          -0.000033683647095325785,
          -0.000019464538428957902,
          -0.0000075957412190174934,
          -0.00004324321505091051,
          -0.000025258406876544326,
          -0.000049106524310788505,
          -0.000016445953725850515,
          0.0000011343220851350643,
          0.000039600899181490036,
          -0.000019887099668038123,
          -0.000013213432284425197,
          0.000021340973935860653,
          -0.00002745368698489059,
          0.00002134523660377077,
          -0.00003320206831779926,
          -0.000039297550602012944,
          0.0000045439807590220485,
          -0.000024512707224510734,
          -0.00004613411704073789,
          0.000012192116301739286,
          0.000024954308997615173,
          0.000024604721281653853,
          0.00003298790256595678,
          -0.000023610637662797496,
          -0.00002938523724548694,
          0.000004720043920309025,
          0.000024888778077005423,
          0.000047317168606162995,
          -0.000035838420557031614
        ],
        [
          -0.000027005912003346476,
          -0.00004154692835904232,
          0.000014350456546896906,
          -0.000006593896541427502,
          -0.00003909920676274172,
          0.000042068393495109534,
          0.000006946925894365763,
          0.000038459391521939644,
          0.00004469854244118285,
          -0.000029120693848675017,
          -0.000046975603670461455,
          -0.000010267909267773234,
          0.000013232705179119142,
          -0.000030987346685516036,
          0.00003246355365683247,
          0.000016004768540712222,
          0.000014612708917975992,
          0.00003690897021094231,
          0.00003289870839444047,
          0.000011760718579048125,
          0.000046444460599386314,
          -0.000038160306648728004,
          0.000002825670669191349,
          -0.00001875362589321057,
          0.00004007098890483813,
          -0.000006413438590649223,
          0.000006544507749147122,
          -0.000043423462682334056,
          0.00001050845510079612,
          -0.000011370409613459031
        ],
        [
          -0.00002404270496013472,
          0.000014137715317757183,
          0.00003794006143616675,
          -0.000018529306840777625,
          0.000013279140754823105,
          -0.000007845895247673962,
          -0.000045286181288638594,
          0.000034935995870312,
          -0.000022086768502091057,
          -0.00002020857546617316,
          0.000006076294404738292,
          0.00004623952161452607,
          -0.000023319468013363732,
          0.00004964255453218524,
          0.000006773187688367788,
          0.000016784545998327084,
          0.00002926326921605078,
          0.0000362474767878717,
          -0.00002255179507653573,
          -0.000012074911799293298,
          0.000038236543847643675,
          0.000018308963541233236,
          0.00004994861977883229,
          0.000008275415414523457,
          -0.000007607531246444799,
          -0.000026113429453285808,
          0.000009320792857812999,
          0.000036820536326710626,
          0.00003322833313403395,
          -0.000005999285170677582
        ],
        [
          0.000032764845636187004,
          -0.000025535921850657894,
          0.00000853034819411358,
          0.000017881965948936584,
          -0.000020311195213875388,
          0.000025844957117495192,
          -0.00004759277664110997,
          -0.000017287330713832837,
          -0.00000997558590583587,
          -0.000013734621875108122,
          -0.000006911547997349499,
          -0.00004101691076509484,
          -0.00002572723298471815,
          -0.000030832313289665646,
          -0.0000030997816876409347,
          0.000027249736188148677,
          0.000016340030172091956,
          -0.0000018554438213334247,
          -0.000010596028422288684,
          0.00003705851739530961,
          -0.000013544393734863958,
          0.000028538766992695508,
          0.00003890820107299906,
          0.00003767701140056843,
          -4.6181095536306225e-7,
          -0.000027640418354618102,
          -0.00000841376569130996,
          0.000016208290784207224,
          -0.000022987276028134552,
          0.00004198950562404546
        ],
        [
          -0.00003421329827094788,
          0.000002821555928406405,
          0.000024342251615687018,
          -0.00004218156126259316,
          0.00004120596960128737,
          0.000030280210868537138,
          0.000009074136044739433,
          -0.000028872961706043564,
          -0.00004207390894205056,
          -0.000034640669587255556,
          0.000046868512261462604,
          -0.000022670977313024743,
          0.000021812820707236624,
          0.0000292340901199583,
          -0.000018434856188983017,
          0.000018810774863194534,
          0.000010588294078849447,
          -0.0000064555851615966995,
          0.000021946421838371166,
          0.00003997864951662247,
          0.000020165108792194618,
          0.00001803581695655119,
          0.000014404937314419653,
          0.000049594532895906784,
          0.00003482747689095806,
          0.000004974468582587388,
          -0.000006603396151221897,
          -0.000046385908433797015,
          0.000032542404024238356,
          -0.00000322741653308829
        ],
        [
          -0.000004879583817032107,
          0.00003871368054053279,
          -0.000027650348391374812,
          0.000009571650748871007,
          -0.000011950018961250453,
          -0.000028119733840230478,
          -0.000011325082442852774,
          -0.000045984586269120496,
          -0.000047745842649049554,
          -0.00003853092105734561,
          -0.00002857107900735165,
          -0.000036280560093119885,
          0.00002776603488313256,
          0.000009736388777531223,
          1.7087308656102972e-7,
          0.00004905146234986894,
          0.000002215957283925185,
          0.000028623219648009535,
          0.00001591228117883865,
          0.000012150025315410672,
          0.000011203499652161897,
          0.00002745946375637576,
          -0.0000260376166693566,
          -0.00003127454719729215,
          0.000012788053695995894,
          0.000030170849079091356,
          0.000007245063737385427,
          0.00001955500756146573,
          0.0000265982734310338,
          -0.000004370570050480782
        ],
        [
          0.000026928740188413736,
          0.000027462666781870947,
          0.000012048454414974908,
          0.000015576958631085525,
          -0.000022384768746014648,
          0.0000423320657136455,
          -0.000026572053828797572,
          -0.000020109574723103794,
          0.000041577358406602016,
          -0.00004546876338188635,
          -0.00001975735814738344,
          -0.00002588494441907898,
          -0.000005257546791556122,
          0.000028602510972762096,
          -0.00000592708832676192,
          0.000006651606081141015,
          0.00003012256830879587,
          -0.000027402634650328418,
          -0.000038051546629370734,
          0.00003827497692328818,
          0.000027899112926186565,
          0.00003704287969820643,
          -0.000010795539716018565,
          0.00002085455730157284,
          -0.00002725111343844766,
          -0.000041498689604367664,
          -0.00002048235663980349,
          -0.00002147284637532827,
          -0.000015677662692475947,
          -0.00002416102453150213
        ],
        [
          0.00003423302830296846,
          0.000003416855907179217,
          -0.000027909738963253127,
          0.00004344692672810819,
          -0.0000478863498725032,
          -0.00004001878556492797,
          0.000013481649682058562,
          0.000015537883191547786,
          0.000004767758093867402,
          -0.0000488143663396154,
          -0.000025830391660189122,
          -0.00003394539245357715,
          0.000026284370923523092,
          -0.000020609323613966633,
          -0.0000012941842499776924,
          -0.00003159259443385787,
          0.000012630021008534631,
          0.00003304294775535859,
          0.000009317158306679652,
          -0.0000446134649902558,
          -0.000049640827114644013,
          -0.00003415174308699176,
          0.00000291931251996691,
          -0.000007691398093373002,
          -0.00003862440631910382,
          0.000034517701391811474,
          -0.00003071595485689489,
          0.000028747583953378665,
          0.000018144528135365557,
          -0.00004464025002315149
        ],
        [
          0.00003263457344157208,
          -0.0000058449544371056205,
          -0.00004676866928204384,
          0.000031270213856237187,
          0.00004276757488056864,
          0.000025182211260539766,
          0.0000016430337563295704,
          -0.000008837805076562021,
          0.000006923693275391863,
          -0.00003979259864564344,
          -0.000020518830377746557,
          -0.000029734440021213815,
          -0.00004691932799847367,
          0.000008620305455897515,
          0.000026231662315868043,
          -0.00004585597069568057,
          -0.000027648056274472932,
          -0.000030434286514757148,
          0.00002262656329012962,
          -0.000037847285489579295,
          -0.0000032428167173815135,
          -0.00003367579870889568,
          -0.00001312975882982239,
          -0.00002278554206676722,
          -0.00003444583136122936,
          0.000025607307439509276,
          -0.00003424818748371925,
          -0.00002019405786105506,
          0.00004962040908168175,
          -0.000023878288940271375
        ],
        [
          0.00000996244122953156,
          -0.000001702515735141663,
          -0.00004556844339295778,
          0.00001218408270737199,
          0.000014350986096720585,
          0.000019245502670977443,
          -0.00002013842642560775,
          -0.000033709718821559356,
          -0.0000017473325935442707,
          -0.000032494932464562674,
          0.000047128876295853826,
          0.000035311771094707266,
          0.00002250723370194345,
          -0.000047125167927965926,
          -0.000018430806041002334,
          0.000004380331781380753,
          0.000003217474550803745,
          0.00004701085068867121,
          -0.000029202136147850544,
          -0.000017146520619703454,
          -0.000027860696914686734,
          0.00003369168913776877,
          -0.000003595035143624381,
          0.00003043764146861374,
          0.000033789592125763024,
          -0.00002328247581348164,
          0.000011251104537233726,
          0.00004203515291234985,
          0.000031800838104648664,
          -0.000005797978683228466
        ],
        [
          -0.00002091370134449436,
          -0.000034612650116925795,
          -0.00001578404257176097,
          0.000032540368481850064,
          0.00003090519249838092,
          0.000025225234917850326,
          0.00003345950702260145,
          -0.0000013391313581527137,
          0.0000469364475326312,
          -0.000028628652963588707,
          -0.000012801938841418668,
          0.000019289225605090654,
          -0.000029268122114983044,
          0.00004461720340789352,
          0.00004276426567463599,
          0.00002218683919194425,
          0.000042872218082158105,
          -0.000013911804216985774,
          0.000028407643954326766,
          0.000027017210554527066,
          0.000026856691064313736,
          -0.000014536899989946052,
          0.00003652546144232366,
          0.000022719734847486484,
          -0.000008246994911088932,
          0.000019168969400824923,
          -0.000014681436071301785,
          0.000004807691132801049,
          -0.00001925288850225895,
          2.920775594366534e-7
        ],
        [
          -0.000019578836312032665,
          -0.00002942931005865331,
          0.00004363365733051249,
          -0.000032268636834856594,
          0.00005217775603277891,
          -0.000003215728927570324,
          0.000020251248378490934,
          0.000055608212343541276,
          0.00003966956603424919,
          -0.00001101885704578448,
          -0.000024938531097628726,
          0.00004539785988823084,
          0.000045473653768338256,
          0.000005924898419419598,
          -0.00003844872604904996,
          -0.0000013897749873863794,
          -7.222783146440034e-7,
          -0.0000146465334022305,
          -0.000019146309216041575,
          -0.000036502378513500725,
          -0.000002947919099996734,
          -0.000023935164266163043,
          0.00004527242960563342,
          -0.0000025687764771939947,
          -0.00001876982242639274,
          0.000027382189540123956,
          0.000023996429585278278,
          -0.000025367691600626936,
          0.000015032458912016096,
          0.0000018765184148465292
        ],
        [
          0.00005119998529819044,
          -0.00002598707796582173,
          0.000024879983629839157,
          0.000014824825955493238,
          0.00004742334090156824,
          0.00006222306653013796,
          0.00004517436209080835,
          0.00006208464609694383,
          0.00006428715777049395,
          0.00004254103708103531,
          0.000060847381214074686,
          -0.000034727897171146316,
          0.000015359880196748325,
          0.0000060565869987609086,
          0.000007984700825770887,
          0.00005058888584726901,
          -0.00002259604488472839,
          0.000009538986305527858,
          0.00003328709426367171,
          0.00002053888890844102,
          0.000029924226941861628,
          0.00004329950897379598,
          0.00005836770014078429,
          -0.00001063556660173368,
          0.000011906415256809235,
          -0.000006038099642786451,
          0.00004096204956198072,
          0.0000015342739564363514,
          0.000013058749460819323,
          0.00004422623039389386
        ],
        [
          0.000056756433604597645,
          0.00006366602338273448,
          0.00004229594494275643,
          0.0000357783336822227,
          0.000004765141517952793,
          0.00001016013130273761,
          0.00004233254147654927,
          0.000055004991714161445,
          0.00002939570284300783,
          -0.000021694276337189177,
          0.000022707423737798594,
          0.00005470837868041243,
          0.00004182198442115384,
          0.000004881767968293056,
          0.00005959651096316018,
          0.00003321602321941821,
          0.00004750517539022341,
          0.0000315475692862453,
          0.000001742037821858494,
          0.00004931575924178009,
          -0.0000038404835279898105,
          -0.000005512830092483898,
          -0.000015557561275451633,
          2.439373401589663e-7,
          0.000006546717781731054,
          0.00007244606146874072,
          0.00005608534183871807,
          0.00004034536233469526,
          -0.0000022089003085775795,
          0.00003085875611867715
        ],
        [
          -0.000012393129968967078,
          -0.000013953005273027634,
          0.00004558666473013197,
          0.000014946143935725869,
          -0.00001153740545867423,
          0.000003300345280441223,
          -0.000014976769046354395,
          -0.000005043546410422416,
          0.000009920125225103637,
          0.000009734107267726774,
          0.00003616102039379968,
          0.00004677084945724332,
          0.0000013180025457516225,
          0.00005358547682600295,
          0.000002343715828862197,
          -0.000010924479727185296,
          0.00002053321225627108,
          -0.0000027909271443545807,
          0.000002206817707109231,
          -0.000005451850197826038,
          0.000041482286471161964,
          -0.00002585606246267045,
          -0.000014027597042586068,
          0.000009348347443568988,
          -0.00001690344231509786,
          3.076735974071652e-7,
          0.000050725264408793396,
          0.000010144683422978108,
          -0.0000067730022764639305,
          -0.00002843512882760992
        ],
        [
          0.0000366952827046996,
          0.00004836502441910308,
          -0.00000766925121635847,
          0.000046556522431950395,
          0.00004474217566452037,
          -0.000007810775987019104,
          0.000028168978924389536,
          -0.00001662331052593359,
          -0.000008543321219467535,
          0.000024083783733865413,
          0.000018902228016899903,
          0.000026646412717040308,
          0.000004412943233730343,
          -0.000017536755109781594,
          0.00005104748530962396,
          0.00003945839374065591,
          0.00003673121672220583,
          0.000005976424480880253,
          -0.000011684978553484654,
          0.00005618377074108101,
          0.000022900449195573872,
          0.00003146876252751554,
          -0.000011146605123858361,
          0.00006771584830230092,
          0.00001728948097917514,
          -0.0000010117712848238435,
          0.000013728136788090645,
          0.000008028085763756858,
          0.00007148856745053131,
          -0.000002843603713107782
        ],
        [
          0.00006272014455019624,
          0.000006704651220685931,
          0.000009587319822742584,
          0.0000575046847714238,
          -0.000012694494448509116,
          -0.000031595642154003005,
          0.000027151616687948277,
          0.00001852617843394754,
          0.00006291954335448276,
          0.00005995320358302943,
          0.000029699308114912797,
          0.000014794243114322216,
          0.00005966004703245445,
          -0.00003274936835580317,
          -0.0000023507130281914346,
          -0.000019949636309872274,
          -0.000019285087818127193,
          -0.0000245386791151745,
          0.00003338308632943818,
          0.000055421943514893456,
          0.00005474516953929144,
          0.000038745786607033384,
          0.00005784869368564682,
          0.00005963255823933695,
          -0.000024257653246111455,
          0.00001940153562812046,
          -0.000021886144438216724,
          0.00001226906915032244,
          0.000055722182791528387,
          -0.000017362769992764452
        ],
        [
          0.00003490233142659303,
          -0.000002240519223931702,
          0.000025431692883362828,
          -0.000005968787188990461,
          0.000004836962228907462,
          0.000030032346965407726,
          0.00004715765218742219,
          0.00004050552485269003,
          -0.00002681156349379206,
          0.00004766405998525971,
          0.000016663675471222395,
          0.00006103733801246896,
          0.000026184701852588914,
          0.0000036351478050313057,
          0.000034386608667969514,
          -0.000024527692150345394,
          -0.000005452143809434587,
          -0.000006935822976177478,
          0.00004912802188021463,
          -0.000021819952556575588,
          -0.000005011021856278775,
          0.00002739135917364187,
          -0.000029922837563429344,
          0.00001696084472552805,
          -0.00001800047084029297,
          0.00006270422620791275,
          0.00004830426258866747,
          0.000045583130244115684,
          -3.6075895280380925e-7,
          0.00004088943044790068
        ],
        [
          -0.000028594601711452732,
          0.00001445075648930954,
          0.0000287167839304765,
          0.000018954236825091203,
          0.0000495330802494211,
          -0.0000073920866016888274,
          0.0000030389676456935915,
          -7.425871703492884e-7,
          0.0000325447838940258,
          -0.000034373926275692566,
          0.00004833155280749077,
          -0.00000875419255761449,
          -0.00003180387729284854,
          -0.000006462091913876537,
          0.0000016353875146192362,
          0.00001540456398299141,
          0.000044672116657316086,
          0.000029624479622390167,
          -0.000008140170588629965,
          0.000013990714571026126,
          0.000048082427464183426,
          -0.0000031018995170397484,
          -0.000003792801013696203,
          0.000014571346605600944,
          0.000006913036536807327,
          0.000024447002525593953,
          0.0000010622139584311578,
          -0.00002431445173561803,
          0.00004579978991466757,
          -0.000016606386154209483
        ],
        [
          -0.000023217565473959654,
          -0.0000042087643691365155,
          0.000005583328957494542,
          -0.000006147830338908962,
          -0.000023829426027413002,
          0.000010770367379863446,
          0.000022591665167605753,
          -0.00002458581203461233,
          0.00006118611082925904,
          0.00000208404227239437,
          -0.000026067944944555278,
          0.000005038800864443018,
          0.000043812961866426785,
          0.00005399775878770689,
          0.00000866988596689785,
          0.000016504885662756343,
          0.000024490734563645588,
          -0.000006631177332211894,
          9.223632396646506e-7,
          0.000052313702080610105,
          0.000011281992155372778,
          0.000020754594800402055,
          0.00005689130272733091,
          -8.526379425899259e-7,
          0.00003822128859801342,
          -0.00003042589590368558,
          -0.000010804453463827986,
          0.000054049710283513284,
          0.00003517077101458,
          0.000047284096788783
        ],
        [
          -0.00002316476634527931,
          -0.000023295205439336607,
          -0.000020948922007656516,
          0.00003489512449085338,
          0.000004141598842963122,
          0.000009440379898320729,
          -0.000007090432616449069,
          0.00004250666765336353,
          -0.00001059344032194182,
          0.000016649090535561327,
          0.000053438043049457925,
          -0.000040338049436711044,
          -0.000022512797515448667,
          -0.000012906659299546172,
          -7.729851593821596e-7,
          -0.00001248222756703543,
          -0.000014323332866911021,
          0.0000019584124102625833,
          0.000021840476667643786,
          -0.00003988489199708343,
          0.00004461496279310181,
          -0.000008184693478247977,
          0.00005135232167651312,
          -0.00003059675354256337,
          0.000027488841435282567,
          0.000025456360259896315,
          0.000018723930157968064,
          0.000009737603944644287,
          -0.00004070840851195235,
          0.000017629386209787912
        ],
        [
          0.00004827140682731474,
          0.00003223862166977439,
          0.0000028242128667396362,
          0.0000039674688211493395,
          -0.000039629233198466386,
          0.000022244052054744113,
          0.0000022661889401665717,
          0.00002245621935907305,
          -0.00004642521312470599,
          -0.000009076960863156316,
          0.000013169287692563108,
          -0.000023444988509450525,
          0.00003990294325325527,
          -0.00001301362431691827,
          0.00003107513981897575,
          0.000009187911505787163,
          0.00003312423116725831,
          0.0000025476112639749386,
          0.00004814064393267918,
          0.000008038749391394818,
          -0.0000310927720439076,
          0.0000511072137726791,
          -8.874445179438394e-7,
          0.0000420165714321719,
          -3.6291000864908096e-7,
          -0.000024364985646931643,
          0.00004847477429191011,
          -0.00004393672272486259,
          0.000023556353588159626,
          -0.000011463665730928907
        ],
        [
          0.00002592487803339271,
          0.00004539156286318053,
          -0.00004196032666222216,
          -0.000005660459106083248,
          -0.000008843579768859323,
          0.000017588072660289445,
          0.0000357381973899424,
          -0.00003781689509713959,
          6.338095034743016e-7,
          0.000048083662065361194,
          0.0000351808435103973,
          0.00002957427739295857,
          -0.000032338902541477015,
          0.00002422431714356584,
          -0.000006386710325719137,
          0.00003568018173929992,
          0.000033527544376682254,
          -0.000007500874337272338,
          -0.00002646555032663673,
          -0.000019513151314844377,
          0.000006006795170604275,
          -0.00003750379235721574,
          0.000036850210277184114,
          0.000010576869293850929,
          -0.000027160745842321268,
          -0.000018947921011617148,
          0.00004949297398116022,
          -0.00003871265032829153,
          -0.000018482477609080886,
          -0.00004097931273057795
        ],
        [
          -0.00001950016939456593,
          0.00004044768394316923,
          0.000008234390023990824,
          -0.000007170156787610773,
          -0.00001243185277783991,
          0.000029159402744714596,
          0.0000453079395001337,
          0.00003876558131197111,
          -0.00003060797121333209,
          0.0000015708394793583153,
          0.00005190438080695462,
          0.000033212227980228533,
          0.00004896790113061107,
          0.0000478142659509086,
          0.00000864760316814278,
          -0.000043239926639628104,
          -0.000013405844635071653,
          -0.00001854042351663639,
          0.000035963290164754625,
          1.0155184285656484e-7,
          -0.000015433333680976685,
          -0.00003698946462047579,
          -6.391019410839373e-7,
          0.00003445945353932915,
          0.0000011959127230828736,
          -0.000006883915640562259,
          0.000025186877690605662,
          -0.000006424627514512687,
          -0.000041556918639649925,
          0.000013608532603711437
        ],
        [
          -0.000012923787875336163,
          -0.000012855685639118334,
          0.000041223161586941406,
          0.0000010131477191508302,
          -0.000026859145860848832,
          -5.73105619290807e-7,
          -0.000004904995232572114,
          0.00001088691376565436,
          0.0000013930554842983307,
          -0.00003334466631124364,
          0.000023413423686941946,
          -0.00004162377630654795,
          -0.000025481687465708616,
          -0.0000374121955324598,
          -0.000017923197439968798,
          0.0000035825639661559224,
          -0.00004697208364057131,
          -0.000023555934087884018,
          -0.00003640646588937086,
          -0.00003921213484146089,
          -0.000027285306519366584,
          0.000007276752474086209,
          -0.000004279199255919788,
          0.00001113585594239172,
          0.00004907991266438926,
          -0.000016684735483182242,
          -0.0000028129692885412714,
          0.000012632085908605693,
          -0.00004152799712140585,
          -0.000049064683572241566
        ],
        [
          -0.00003127165196480481,
          -0.00004929735264487292,
          -0.0000306920575233337,
          0.000009065902418747659,
          0.000019403786253561634,
          0.000006444824226870527,
          -0.00002549955829587448,
          0.000019611583189199754,
          0.0000449333183869393,
          -0.000033538297244003645,
          -0.00004249485577589796,
          0.00004600714860060055,
          0.000006333448572159122,
          0.000018282294312156943,
          0.000019186625780928736,
          -0.000011142045039442581,
          0.00004414095385156181,
          0.000024747771157430527,
          0.000021601849410911595,
          0.000014515148809293102,
          0.00004253085685595548,
          -0.000008533071629693507,
          0.000024683639295534378,
          -0.000008795933367672215,
          0.00001608633027794753,
          0.0000497471842880883,
          -0.000007592658315004174,
          -0.000038935588648654986,
          -0.000012033631698192591,
          0.000023990598570239326
        ],
        [
          -0.000013347126026332243,
          0.00004968177978935957,
          -0.000030169395644383478,
          0.000006207682165466375,
          0.00003643001497496137,
          -0.00004827067356807028,
          0.000009746226965972605,
          0.000012048393069778973,
          -0.000006819467327311141,
          -0.000041978598287022053,
          -0.00004723203965771308,
          -0.0000012304828128379733,
          -0.000001912480784517528,
          0.000049920415785101034,
          -0.00004322820226244142,
          -0.000042576371908637276,
          0.000004795356279967228,
          -0.000045973603171803386,
          0.00004296458016503548,
          0.0000229900399814546,
          0.000014583416754684306,
          -0.000001963768897814686,
          0.00003425730708836517,
          0.000008170162306314737,
          -0.000003863575855884315,
          0.000028879022363534448,
          -0.00003838613019477608,
          -0.000022648791112986532,
          -0.00004383360742303209,
          0.000016770052137354035
        ],
        [
          -0.000039536586418668286,
          -0.00004121638953793083,
          0.000027105400424430547,
          0.000038291909596809856,
          0.00003258359376575268,
          -0.000007545383379316428,
          -0.0000070897123719951826,
          0.0000037005368648455717,
          -0.000010042303664818242,
          0.00004684689160756195,
          -0.00002140953724329335,
          -0.000045463148259746644,
          0.000026090782899465047,
          0.000017640571505596527,
          0.0000243552901657464,
          0.0000036764335864047705,
          -0.000044697746884252364,
          0.000003967738841958468,
          -0.000017516042824307322,
          -0.000026404382036877715,
          -0.000005392335472228682,
          -0.000031756420392468956,
          -0.00002396062471979368,
          0.000005006991363985324,
          -0.0000338030469110939,
          -0.00001864422606836966,
          -0.00002744527754570203,
          -0.00001873491732659296,
          -0.00003575832481696137,
          0.0000064572560126912484
        ],
        [
          -0.00002977719869380593,
          0.000016851020249630343,
          0.000016962637917212307,
          -0.000008459515399563133,
          -0.00004198792177595465,
          -0.00002169757827045198,
          0.0000450542174105244,
          0.000046558395590206206,
          0.0000016721904339368487,
          -6.021612785800601e-7,
          -0.000010491360821805595,
          -0.000015363836479166903,
          -0.000034487603873744876,
          0.000024248692442543353,
          -0.00004355186777461431,
          0.00001933260112705417,
          -0.0000013604895458724897,
          -0.00002091601455800969,
          0.000006721397106034433,
          -0.00003554253586295444,
          0.000037745014791823926,
          0.000023062544998608736,
          0.000012151023964122576,
          0.000042944631440545875,
          -0.00002755348330287024,
          -0.000048013355509623844,
          0.000030358063514734735,
          0.0000324469579242916,
          -0.000020010860898284433,
          0.000004242015864586257
        ],
        [
          -0.00000652188466264012,
          0.00000454437053769925,
          0.000010854607780900327,
          0.000029879472967577337,
          -0.00002239953199815081,
          0.000021458270970345405,
          -0.000048754037010405904,
          -0.000006508244828556009,
          0.0000074464916932551975,
          0.00004201564899594699,
          0.00003718469923735548,
          -0.000036712931527660594,
          0.000010480706761576085,
          -0.000025787406918816468,
          -0.00004031691849688661,
          -0.00003094751732637722,
          -0.000020779032876896798,
          -0.000027852973214971065,
          0.000028589078565002523,
          0.00004316865350140178,
          0.000009779331029092342,
          0.00004934675143306442,
          -0.000049022288347638334,
          -0.000020396593627129643,
          -0.000007777343440274831,
          -0.00003513510218724121,
          -0.000016483400769445612,
          -0.000011644863246878923,
          -0.000045093450162214644,
          -0.00004697862374527813
        ],
        [
          -0.000020451959940140995,
          -0.000023678313965043917,
          0.00003876579906704849,
          0.000037846449051903155,
          0.00000298234841248155,
          -0.000031885417871275055,
          -0.00002469939099532559,
          0.000029437883467253777,
          0.00001834898169038095,
          0.00001563589338371143,
          -0.000020471569271137402,
          0.000036907604239848,
          0.0000042163386547074525,
          -8.336103173263165e-8,
          -0.00004282955739210541,
          0.000021093020919537664,
          -0.000030300514875364225,
          -0.0000015694262265336655,
          -0.00002462900833230459,
          0.000020030123382226893,
          0.000018602756977300516,
          0.0000015569999415865343,
          -0.0000398679112280931,
          -0.00003640011880255321,
          -0.000020921570746542972,
          -2.5187837435702854e-8,
          0.000008204503386393002,
          -0.00000482497693555286,
          0.000011490052743361745,
          0.000007592075952564747
        ],
        [
          0.00002152481941140134,
          -0.000033657121023246715,
          -0.00001489784982691338,
          0.00002592110272115411,
          0.000038024157044290455,
          -0.00000429000453865136,
          0.000020757795937353872,
          0.000024300116210797395,
          0.00004108365635512914,
          0.000040877804147795826,
          0.00003297507566816471,
          -0.0000446369505739292,
          -0.000035123896609469194,
          -0.00002029033416745667,
          0.000046983236929633445,
          -0.000023629141236173656,
          0.000040251426250319964,
          -0.00001357862978693245,
          -0.000014063812709121137,
          0.00003318141485578883,
          -0.000025179127579716943,
          -0.000032027998311779296,
          0.00002342004377792182,
          0.00003253517480273196,
          -0.00004701724727124386,
          0.0000019098557552357676,
          -0.00003004819525763296,
          0.00004997393228669056,
          0.000011630765406021526,
          -0.0000012397274849681006
        ],
        [
          -0.000026518823344450702,
          0.00003973490770287969,
          0.000011636200753445224,
          -0.000014599464702512255,
          0.000007330052073359461,
          0.000026240993072658302,
          -0.000005397532705664632,
          0.00004470771865164684,
          0.000031675807446712015,
          -0.000021685154219298796,
          0.000022894324546938492,
          -0.0000065759942964526365,
          -0.00003858497400965166,
          -0.000010907482076210662,
          0.000026934644479570324,
          -0.0000322981172384942,
          -5.210567716790404e-7,
          0.000027503390124758887,
          0.000047764667108988193,
          -0.0000393247956465661,
          -0.00003470486671636317,
          -0.000009954269464734654,
          0.00002770560417821668,
          -0.000041905013247734635,
          -0.000006186513486689171,
          0.000013844070205290349,
          0.000049710108903524785,
          0.00002271453021471801,
          -0.000014337931657899228,
          -0.00003391809722992267
        ],
        [
          0.00004167003396326815,
          -0.00004962019013476991,
          0.00003621405689940238,
          -9.281639794629056e-8,
          0.00001815902374894381,
          0.00003119099258800413,
          -0.00002965325572836399,
          -0.000007886633121440032,
          0.000027499272622021738,
          -0.000033262946555369284,
          -0.000027709362581682057,
          0.000016814753163272243,
          -0.00003817968838575508,
          -0.00004808841562151199,
          0.000028982476354732987,
          -0.000028701324219155235,
          -0.00003101874004592375,
          -0.000036643099527343155,
          0.00004644900921254394,
          0.000014266601028128674,
          0.00003165823413259109,
          0.000030731535776362635,
          0.00004124500267739521,
          0.000041798481367801205,
          0.000015481062746961737,
          0.0000021213108365935683,
          -0.00003442838124838016,
          0.000015294062952256854,
          0.00002122321291422408,
          0.000009848835548871236
        ],
        [
          -0.00003195987545081002,
          0.000022340388730328552,
          -0.000013985189649954589,
          -0.00004409773558385133,
          0.000037641580472703386,
          0.000003944174131971846,
          0.0000350554203806172,
          0.00004635058763353748,
          0.000034899842150572726,
          -0.00004818764377052325,
          0.000007456198854610631,
          -0.000020771664521430275,
          0.000015211003701139042,
          -0.00003315113605891849,
          -0.000043753789858597635,
          -0.000013536562812594163,
          0.000027062267889496928,
          -0.00004071707864886052,
          0.000021335620643994617,
          0.00003768677883695158,
          -0.00003093350697108256,
          -0.0000058872170805682535,
          -0.000024638500762735105,
          0.00003717536934799486,
          -0.000002549373195388378,
          -0.000013308640218931223,
          -0.0000452909236538963,
          0.00001705423787020427,
          -0.000019861505470220224,
          0.00001438208943738798
        ],
        [
          -0.00003238306355766784,
          0.000012347872155078864,
          0.0000034450323741036247,
          0.00003612735700664425,
          0.00003692472244430836,
          -0.0000012142214483392895,
          0.000023855917906882513,
          0.000041699529701697884,
          -0.0000023847830144042647,
          0.00003857909859021023,
          0.000015081335392622119,
          -0.00000355411097175868,
          -0.000031027798279231725,
          -0.0000019199909154877436,
          0.000025520922021786648,
          -0.00003861754301757804,
          -0.000009388830159384583,
          -0.00004688963765104402,
          -0.00001572596646846622,
          -0.00004898657993852243,
          0.000048241714582686935,
          -0.000025079628898652727,
          -0.00002116537469295442,
          0.00004320839185572776,
          0.00000432016906385662,
          -0.0000369071079216155,
          0.000008978814415598358,
          -0.000008462152240837158,
          0.00004040008038220957,
          0.000042551238196493305
        ],
        [
          -0.000007698911213930524,
          -0.00003996213690941356,
          0.000044330288253088314,
          -0.00002179434452502416,
          -0.000004851054433400326,
          0.00003007808306997904,
          -0.000015056575994846533,
          -0.00001498042821968058,
          0.000005313643407754447,
          -0.00004076097403049976,
          -0.000042752712422475756,
          0.000037967470584128316,
          -0.00003328629082654006,
          0.000024817372198922758,
          -0.000033590768544807176,
          -0.00004076818948321967,
          0.000015228666222309942,
          0.000005768571473223263,
          0.000026041649615781744,
          0.000042219437808502075,
          -0.00000950626917662087,
          3.486104044954743e-7,
          0.000010251799569466083,
          -0.0000500390635118353,
          0.000024397573834241663,
          0.000041536979291439976,
          -0.000037384925882746116,
          0.000015123317910511148,
          -0.000018916960577611715,
          0.000026738125902892455
        ],
        [
          -0.00001964001586431157,
          -0.00004673829253278424,
          0.00002472915346005026,
          0.000021041504742201076,
          0.000028684736483096946,
          -0.0000036901628338909575,
          -0.00002218520804985455,
          -0.0000203547453021195,
          0.000024583060832208586,
          0.000038642783289328195,
          0.000015525076158482757,
          0.0000018053047888963496,
          -0.00004082604322325254,
          -0.000029832766568342123,
          0.000032182613414439846,
          -0.000025044314707513863,
          -0.00004206732850286818,
          -0.00003485218086539214,
          -8.018885453651609e-7,
          0.00004013501798986852,
          -0.000018139275693878114,
          -0.00002250149348879723,
          -0.000007808319896699442,
          0.000008500517122430861,
          -0.00001175303408414039,
          -0.000016815567941021893,
          0.00004689921649823701,
          -0.00001321608465026121,
          0.000011155319570769692,
          0.00005025193374763226
        ],
        [
          -0.000008557493939540156,
          0.0000522179304334852,
          0.000027884116917803505,
          0.00005938867387117308,
          0.000030427658597182756,
          -0.00003742553487008669,
          -0.000021289630077041013,
          0.000014710709922077357,
          -0.000022852766903463542,
          -0.00001834502779666634,
          0.000029053025015501204,
          0.00003354234373783162,
          0.000021750165430175398,
          0.000015819314583845927,
          0.00006111248665584256,
          0.000029874646546648016,
          -0.000020778555422498406,
          0.00001554427789555756,
          -0.000001069008825346905,
          0.00001743598696398702,
          0.000050286480751371397,
          0.00004130158300475169,
          0.000016871825480655204,
          -0.00000556546664138317,
          0.0000495752627696286,
          0.000019865057330641882,
          0.0000327801665086696,
          0.00004782535298337398,
          0.000005205705625092083,
          0.000056501874432665226
        ],
        [
          0.00007210783662949937,
          0.0000454384708309142,
          0.0000770877571644464,
          0.00003413920597884205,
          0.000023109050865810565,
          0.000017255996593363464,
          0.0000603490054627632,
          0.000041109819690401616,
          0.00003656908637568525,
          -0.00001584356810329831,
          0.00006979643766241067,
          0.000042046534344906054,
          -0.000014963972138087627,
          -0.000012136853461436821,
          0.00004773791139887496,
          0.000019925884455029557,
          0.00005347347047399213,
          -0.000007505016784239398,
          0.00003337501240296869,
          0.0000015840928331924803,
          0.0000683885045873428,
          0.000047857422043145263,
          0.00007506678668229395,
          0.000001569518494860636,
          0.00007066928965269174,
          0.0000734274435195469,
          0.00003558290753592148,
          -0.000017611905696356964,
          0.0000673738947082716,
          0.00001393735562755951
        ],
        [
          0.00003556355912722449,
          0.00008834581949104011,
          0.00004134074774110161,
          0.00007778196564209899,
          0.0000618000048536162,
          0.00004325915329821614,
          0.000047058990743144164,
          0.00007461459440503099,
          0.00008701673895178898,
          0.00007150800302060587,
          0.00007265369419283701,
          0.00007291626780368666,
          0.00006153017661229523,
          0.00012136377818461181,
          0.00003320401553571205,
          0.00012720191410317785,
          0.00006608566031312043,
          0.00009170534279208869,
          0.000039112260693250814,
          0.00004804127243508043,
          0.00004180312869686606,
          0.00008884444772707863,
          0.0001004610188408045,
          0.00007201119041512465,
          0.000059970279682446483,
          0.00004916169132151682,
          0.00012035575494378555,
          0.00007301984479710242,
          0.00012592426954337842,
          0.00007200704790030848
        ],
        [
          0.00010088443649923855,
          0.00013053672794679724,
          0.0001586967011722086,
          0.00011543962293491377,
          0.00016964719411498937,
          0.00010079195913625083,
          0.00015070042916495333,
          0.0001743020361216544,
          0.00011276033629426979,
          0.00014192648572591387,
          0.0001528709807142477,
          0.00014224744523989204,
          0.00010468123116329621,
          0.00012911311843396742,
          0.00012749282776222461,
          0.0001570001046499708,
          0.00015444258646536894,
          0.0001460989843233361,
          0.00016454462908342031,
          0.00019028030276071496,
          0.00013172192662210861,
          0.00011491246735838027,
          0.00017127970917700367,
          0.00017017735352138893,
          0.00011586180306167465,
          0.00019455271431500815,
          0.00014329595463795234,
          0.0001589344277506014,
          0.0001341956342795032,
          0.00015580003405559013
        ],
        [
          0.00020465084011153732,
          0.00022679926416686763,
          0.00016552808006834642,
          0.00017577443900678604,
          0.00018603913676404273,
          0.00017448072712343763,
          0.00015651961833393173,
          0.00017687610860689186,
          0.00023035499463082895,
          0.00015021144899119083,
          0.00014069940103729554,
          0.0001979496732245304,
          0.0001556088976318765,
          0.00016704254133181526,
          0.00015918311067944296,
          0.00022440786759044052,
          0.00015813971634253665,
          0.0002177854867421777,
          0.00016982220224571437,
          0.00015916632971217515,
          0.0002200602759057472,
          0.0001759272880857092,
          0.0001885777459429046,
          0.0001986844613765869,
          0.00020471311556150538,
          0.00020816156201853084,
          0.00019576279368676053,
          0.00022199082815723496,
          0.00017712902789514083,
          0.00023879852897504305
        ],
        [
          0.00021601608753134372,
          0.00019182899084471138,
          0.00017241137196119936,
          0.00022908554634666303,
          0.00026119529159255775,
          0.00023667393751586075,
          0.00020137528083200332,
          0.0002022463961032833,
          0.00017110669862276567,
          0.0002198614287600237,
          0.00018430639296483135,
          0.0001552925067471583,
          0.00021997630951306056,
          0.00022739840721660033,
          0.00022627160970812435,
          0.00023483723376635794,
          0.00017481184617230768,
          0.00024663406972966055,
          0.0001925063656761694,
          0.00018369227217282315,
          0.0001754156190275441,
          0.00020264010203059453,
          0.0002366691535484361,
          0.00016272354689365935,
          0.0002611148903922849,
          0.0002370950739912213,
          0.00018378363712967026,
          0.0002626308798461161,
          0.0002381971446386896,
          0.00020481891663511533
        ],
        [
          0.00014967806259833655,
          0.0001903554284605319,
          0.00022876510640068958,
          0.00016029869378877788,
          0.0001725435835654976,
          0.00023308832580318017,
          0.00017879709746744074,
          0.00023010504198093493,
          0.0001524788857366946,
          0.00023313196553947644,
          0.00021135128707838797,
          0.00014379142969883494,
          0.0002084467730764552,
          0.00022215038144518927,
          0.00017969396125283154,
          0.00017017445550288396,
          0.0001771316044075473,
          0.00018545763481199278,
          0.00019666951038261246,
          0.00022276087425300537,
          0.00015863451989620175,
          0.0002243546660941657,
          0.00021916882997935166,
          0.00016968228665549995,
          0.00024078747991562992,
          0.00024301654005307613,
          0.0002000230211764612,
          0.00018225318091214367,
          0.00015126664238202683,
          0.00024297814378457965
        ],
        [
          0.0003778428914132982,
          0.00040279334301410755,
          0.0003395186884195699,
          0.00037014428568421065,
          0.00034556478708848795,
          0.0003080962546775498,
          0.0003464009761797933,
          0.0003308720132620065,
          0.00035749448017012147,
          0.00039574895971884104,
          0.0003857997575708991,
          0.0003182148271637823,
          0.0003292489305876637,
          0.000366892838570593,
          0.00037792291276359446,
          0.0004159516461356426,
          0.0003592417672153257,
          0.0003985221173404662,
          0.00032942948185078655,
          0.0003673836744483134,
          0.0003784286590581408,
          0.000345180921125196,
          0.00042335745563294925,
          0.0003970604749956015,
          0.0003987108742564081,
          0.00041501101251459837,
          0.0004088993754528578,
          0.00039236073454931397,
          0.0003939045168588784,
          0.0004021692356918924
        ],
        [
          0.00043789387452530945,
          0.00036205028638056444,
          0.00036488644246489803,
          0.0004284659006058327,
          0.0004618944280331645,
          0.0004019595601498031,
          0.00046780358937684164,
          0.000399911600488131,
          0.0003976281765579476,
          0.00040321098267503464,
          0.00042845280841141237,
          0.0004023277329875555,
          0.0003606023683233958,
          0.00046078766869389175,
          0.00043489595136338974,
          0.0004546130603976832,
          0.0004376845522297995,
          0.0004036252354619515,
          0.00040503228625435333,
          0.0003765349869995228,
          0.0003802450628295801,
          0.0004006118106388063,
          0.00038898135091101454,
          0.00039700278260972,
          0.0004522879224748736,
          0.00046656555180687,
          0.000442232791983934,
          0.0003641512551265353,
          0.00041866607811745965,
          0.0004078407420701062
        ],
        [
          0.0003814621218071654,
          0.0003045956048255427,
          0.00036561185803311375,
          0.0002777356986841681,
          0.00029799443507892416,
          0.000321712939316986,
          0.00032396040278320895,
          0.0003129656781218194,
          0.00034002560821132645,
          0.0003417532690760213,
          0.0003359125916070582,
          0.00029191136029080555,
          0.0003562966196534007,
          0.00031556035587331557,
          0.00034118902933908134,
          0.00037419405204239985,
          0.0003408123321406631,
          0.0003258420697590837,
          0.0003493172024589609,
          0.00033492131180486075,
          0.00035130766432506455,
          0.0003766863998036406,
          0.0003585542626615699,
          0.00030379667079152075,
          0.00036260955335584656,
          0.0003531763350640995,
          0.0003689685634230724,
          0.00032198053091195923,
          0.0003032973736174226,
          0.0003166485861501361
        ],
        [
          0.00031172240178054623,
          0.0003058022232552813,
          0.0002651622551354331,
          0.0003335474408782988,
          0.0002797019751507976,
          0.00030251797274110997,
          0.0002669553449282491,
          0.0002766975527258842,
          0.00027632256954559164,
          0.0003211822395876361,
          0.00030509329028895025,
          0.00024964463961770725,
          0.00031852716177116025,
          0.0003356862435385744,
          0.0002940945227786805,
          0.000271401075697985,
          0.00033658756018663765,
          0.0003239410411975521,
          0.00027551034647793057,
          0.0003174099355646922,
          0.00033218275085687113,
          0.0003399764997986504,
          0.000326338322895462,
          0.0003135564347858175,
          0.0002947508686072929,
          0.00028912578362006743,
          0.00029040109689910265,
          0.00026059505122331457,
          0.00027869114804558216,
          0.0003038773720710735
        ],
        [
          0.0002631473920247301,
          0.0002928245813645208,
          0.0002679176160629902,
          0.0002324416874610801,
          0.0003003260958899392,
          0.0002841946268016685,
          0.00025277817339289965,
          0.000295663946368438,
          0.00031531713857566816,
          0.0003106559211661015,
          0.00031426046149353253,
          0.0002791244806000515,
          0.00024184572228351796,
          0.00027246776605149256,
          0.00028126407980200646,
          0.0002922899729957545,
          0.0002518267104137523,
          0.0003273846732613176,
          0.00026452645726702005,
          0.0003507222734393776,
          0.00024358519481154672,
          0.0002707070448333336,
          0.00031941072601759897,
          0.0003262053438347221,
          0.00026366726719696413,
          0.0003151146727041437,
          0.0002587257140308065,
          0.0002823142084006116,
          0.0003136714505363079,
          0.00033134331024065326
        ],
        [
          0.000274342979632287,
          0.0003272070880549269,
          0.00026253967375530117,
          0.0003129319691804143,
          0.0002776273380442097,
          0.00033896145840577193,
          0.00028985839806130943,
          0.0002987527942903105,
          0.0002683756931701719,
          0.0003138809659021576,
          0.0003253019412870269,
          0.000343989643664553,
          0.0002839852973111667,
          0.000354988808330674,
          0.0002733817013599604,
          0.00029109358460274824,
          0.0002935627205601416,
          0.00031348968783353863,
          0.00031445652676561156,
          0.0003373070458642714,
          0.00032091470954774483,
          0.0002815244235301394,
          0.0003651916355676367,
          0.000274966070271753,
          0.0003053219903607917,
          0.0003403967595173249,
          0.0003133841629131001,
          0.0003539987917380208,
          0.0002851122788899973,
          0.000360735244442525
        ],
        [
          0.00019341726495641456,
          0.00018869644041889116,
          0.0001592808562142631,
          0.0001020077222012317,
          0.0001144561453212958,
          0.00012967414887710138,
          0.00016449298576857907,
          0.0001869115795778122,
          0.00018657873024364172,
          0.00013791148418161884,
          0.0001431054371492879,
          0.00018210473381315801,
          0.0002026228656154936,
          0.00020873779620738314,
          0.00013022272818943452,
          0.00013193132017789834,
          0.0001346667986292284,
          0.00020438097488922628,
          0.00017059777731873773,
          0.00016232285891555468,
          0.00014200014262259904,
          0.00018997035520137282,
          0.0001640003820129949,
          0.0001561942702235279,
          0.00016475465214386422,
          0.00014866544318322786,
          0.0002028259836347503,
          0.00018513972803231712,
          0.00016620148321366487,
          0.00011523521627766135
        ],
        [
          0.000020999670055761632,
          0.00002273842321799465,
          -3.0201930088379635e-8,
          -0.00005049237721158219,
          0.00004112735145382845,
          0.000013294901122711572,
          0.000011385589044172273,
          0.000008183067069519612,
          -0.000045691436694460785,
          0.00000536212599559328,
          -0.00003582566192508949,
          0.000029567078014833844,
          0.00004191263008435902,
          0.00002109752093736718,
          -0.000018062958223523533,
          0.00000268489724755042,
          0.00003149164356252554,
          -0.000035316535371384905,
          0.000018849860403790805,
          0.00004207233461324945,
          0.00004215811078722209,
          0.000048584637261817176,
          0.000050665336310809466,
          -0.000024743285478194605,
          5.303542864898122e-7,
          0.0000011388535454752396,
          0.0000059335078548636635,
          0.00003091307371241491,
          0.00003223752957452822,
          0.000011009444425140528
        ],
        [
          0.00001915105597279856,
          0.000017721490889469764,
          -0.00003244509106412879,
          -0.00000969495546369942,
          0.000023581506426385314,
          -0.0000061081314132437,
          0.0000039337073995536135,
          0.000016772888695444465,
          0.000021546557282830092,
          0.000013105101163735296,
          -0.00002965986935188289,
          0.00004416536451273094,
          0.000005246702589391787,
          0.0000025570319802572767,
          0.00006018682950035476,
          0.000015877508252807578,
          0.00005531036165875753,
          0.000039663560269592936,
          0.00003939769727639278,
          0.0000188248149251457,
          0.000048985769515338026,
          0.00002705134209252263,
          -0.000023993864197555353,
          0.00001726419045430182,
          0.000013147141704252791,
          0.000013247022306999567,
          0.000026392990168968957,
          -0.00003172377870616867,
          0.000028283938999605424,
          -0.000034181922899843885
        ],
        [
          -0.000011043116265761757,
          -0.00001777894620797729,
          0.000002564235354131369,
          0.00001487172103362508,
          0.00003299492115462545,
          -0.00003112748194139393,
          -0.00001820862256405115,
          -0.000012118575614775023,
          0.000012634693345500606,
          -0.00001877762058138811,
          -0.000006418156583159469,
          -0.000012923329746939599,
          -0.000004382086372971463,
          0.00003853173134755774,
          -0.0000474621238558434,
          -0.00003632161004741536,
          -0.00002778482882083742,
          0.000026340540208070326,
          -0.000046609639280708035,
          -0.00004327513395428628,
          -0.00002520399791928964,
          0.00003889851272900518,
          -0.00004716830824616543,
          -0.00003137077150810188,
          0.00002527930972519477,
          0.000014324202986805416,
          -0.00001275361254907317,
          0.000045643429761079734,
          -0.00004376088485244584,
          0.00003719861256727294
        ],
        [
          -0.0000153196952362486,
          -0.00004775169842637764,
          -0.00005323728780382257,
          -0.0000020504063126131874,
          -6.257902516522913e-7,
          0.00001387712772886516,
          -0.000016763453512904844,
          0.000013279506290166822,
          -0.00002315803202195186,
          0.000025663113124899762,
          -0.000019987205485809144,
          0.000030670589955251646,
          -0.000030017789326427012,
          -0.0000072797848616144015,
          0.000015190442996717431,
          0.0000017526667721167554,
          0.000024295475939922266,
          0.000021027247307030005,
          -0.000005957833453797536,
          0.0000011349629558851451,
          0.000030431695438259717,
          0.000040687820797339484,
          -0.000011453833950213831,
          -0.00003823543563527988,
          0.0000075716048479331465,
          0.00004385418781645168,
          -0.000008782341088818284,
          0.00003633672943318669,
          -0.00004383958350249681,
          -0.00002359662152499913
        ],
        [
          -0.00003720762432895835,
          0.000012173546225781323,
          0.00001057015789728019,
          0.000026005964537072766,
          -0.00003607691983885486,
          -0.000027329559277452558,
          0.00004624138145354448,
          0.00004568921083874315,
          0.000022738369396456682,
          0.000011928703770806277,
          -0.00004799870894361498,
          -0.00003690552717793167,
          -0.00004339286961770203,
          -0.00003150698964234687,
          -0.000044197125416105964,
          0.00003953656189105877,
          -0.000019560344809454788,
          -0.00004709171932799294,
          -0.000023238969809816224,
          0.000015341395494239383,
          0.000022646446067149783,
          -0.000004821642030784968,
          0.00003259307974746387,
          -0.000016926340517125666,
          -0.00001746111215119045,
          -0.000020159331655137437,
          0.000014493450889889509,
          -0.00004586603193583323,
          0.00003126429004538702,
          -0.00002815406768798223
        ],
        [
          3.267299845801874e-7,
          0.00004396834598345478,
          0.000010712324604797318,
          0.00004935163956621926,
          0.00001904606623453442,
          -0.000013262044610449841,
          0.000017999485174870577,
          0.00002856796054302815,
          -0.00003799018293928238,
          0.000027208996668076257,
          -0.000012995546793876844,
          -0.000021147169789721643,
          -0.0000401969306870789,
          0.00002384723340089323,
          0.000025939457418999122,
          -0.0000491814793343164,
          9.901435564220628e-7,
          -0.000009037495762841453,
          -0.00002973116814557826,
          0.00002155692484555527,
          0.0000298399243822677,
          0.000009835802129543292,
          -0.00003200743816529927,
          -0.000020723128420491355,
          0.000045407445019272254,
          -0.000021576214299549858,
          -0.00003281783354447503,
          0.00002538734244929377,
          -0.000002372079206495692,
          0.000030099671525923167
        ],
        [
          -0.000045384231246891506,
          -0.00000954244577792187,
          -0.000004097245924574944,
          -0.000036450181127182194,
          0.000042028125964396227,
          0.00002298256698744674,
          0.0000334792036272388,
          0.000042829544533092465,
          -0.000020533055649272813,
          0.000003009857307080832,
          0.00002381530330385433,
          0.0000328756324674607,
          0.000027337749914092212,
          0.000014171036592306896,
          -0.000031816764957409063,
          -0.000039429145224082364,
          -0.000013972813928197315,
          0.000021720015289474472,
          0.000023456410675994998,
          0.000016536994360583824,
          -0.000047293721851685586,
          -0.000032668834882809804,
          -0.000016760045305359106,
          0.00002000943173176839,
          -0.00004846749427717356,
          0.00003275694116291059,
          0.00003047759673543531,
          0.000038184320745891285,
          -0.000049955163158165125,
          0.000003342013495298768
        ],
        [
          -0.000019935300741748983,
          3.698676850638627e-9,
          0.000020639866224464963,
          -0.000018533964252599632,
          -0.000033330120939415344,
          -0.000014967880977239622,
          -0.000019906625242648924,
          0.000018010124319027222,
          0.000003907303934490236,
          -0.000016086346526190167,
          -0.0000207597424255046,
          -0.0000037286589622119725,
          0.000022473973275568483,
          -0.0000047044666468654575,
          0.0000023849165254359983,
          -0.000016694395212601563,
          0.00001708447304076839,
          0.00004273730607665041,
          -0.000002482423212298124,
          0.0000354236996911373,
          0.000044295696282581744,
          -0.000017905289219307675,
          0.000047443203358857964,
          0.000005211974961659105,
          0.00001598470047035323,
          -0.000014019555150260076,
          0.0000174473088404977,
          0.00004211888440860321,
          0.0000045108771397853745,
          -0.000019314716066048753
        ],
        [
          0.000024432199985738824,
          -0.000003575378336491375,
          0.000011302248609055266,
          -6.207721872208972e-8,
          0.00001876355797008431,
          7.746375232264402e-7,
          0.000017447920020273843,
          -0.00003643942997330696,
          -0.000007813395285748537,
          -0.00001745773432655444,
          -0.00003229064622390827,
          0.000021174432694525393,
          -0.000036995902929459026,
          0.000018037190722348105,
          0.000029960444747871473,
          0.0000473697258090757,
          0.000041445992883524794,
          0.000013558622539128229,
          -0.00001260673892286055,
          -0.00004309637636689701,
          0.000029900831105942393,
          -0.0000017367523785259298,
          -0.000014288533645319013,
          -0.00004307524928077231,
          0.00004578294455523324,
          0.00003527936036091937,
          -0.000049603042827072244,
          0.00004480698303674575,
          0.00002234005082867545,
          0.000018859064381682945
        ],
        [
          -0.000042964047432181274,
          -0.000034045199728265085,
          -0.00004899917891567024,
          -0.0000354016717156449,
          -0.000033228286134475,
          -8.660584856496273e-7,
          0.00003842426926816647,
          -0.000011883020837072349,
          -0.000020182182294948645,
          -0.00003514921705076665,
          0.000009632714728675746,
          -0.00003471628972929994,
          0.000027927123505978843,
          -0.000015294878247701228,
          -0.000013910979555955207,
          0.0000349805461238172,
          -0.00003400226597089475,
          -0.000013991137442824876,
          0.00002313409567804791,
          0.000009632483373148777,
          0.000001487471705471565,
          -0.000020489677573399484,
          -0.00001902534231211817,
          0.00003021698326812227,
          0.0000025646209639810152,
          0.00003508494076376827,
          -0.00002929271786903921,
          -0.000012459456851818888,
          -0.000008116566743698126,
          -0.00004689651525548418
        ],
        [
          -0.000019179071160203232,
          0.00001972815998988315,
          -0.00003388620136265761,
          0.000024955698975221318,
          -0.000010857609156890323,
          0.000034017782099256516,
          -0.000004180745918850765,
          0.000011974257592317716,
          -0.000002877815701896154,
          -0.000007784045874254132,
          0.00002801338692422745,
          0.000044157826915295275,
          -0.000016823697187334375,
          0.000013542065352424564,
          0.000028682583629315938,
          0.000008896287020093059,
          0.000045998912218557815,
          -0.00003350729098403135,
          0.000027458875147731305,
          -0.000019811268205432128,
          0.000038334611858549005,
          0.000020385042606769396,
          -0.000041945520961636134,
          -0.000029964069386545896,
          -0.000019533036009910407,
          0.000028307785283611712,
          0.00004483282690542999,
          9.908022849957162e-7,
          0.000022414459623300312,
          -0.000005026998347031547
        ],
        [
          -0.00003913718635513605,
          0.000034923552327498995,
          -0.00003708847307302729,
          0.00004089789697226094,
          -0.000026082440284982072,
          0.00001374454737823024,
          -0.00004674809485789051,
          -0.000009610413444899594,
          0.000012650863413411347,
          0.00003071656688612069,
          0.000025319148272888097,
          -0.000012272710504067643,
          0.0000268761415270321,
          -0.000011137373709926403,
          7.446746278628124e-7,
          0.000023228811118760704,
          0.0000485640556347035,
          0.000016948299322084812,
          -0.000016978163491129017,
          -0.000021002201877314277,
          -0.000045598311976356674,
          -0.000012598092510644343,
          -0.00004033528489524349,
          0.00004576755912285451,
          0.00003282841035795287,
          0.0000040619848911733205,
          0.000012367750916466124,
          -0.00003577927763158304,
          -0.00003442430101946977,
          0.000018736768597223154
        ],
        [
          -0.000017041345284625434,
          -0.00002841451409947251,
          0.00004182944245337349,
          -0.000014911698069097474,
          -0.000017944472005302027,
          -0.000008114716717861067,
          0.00004491961837753803,
          0.00003794741335285805,
          -0.000004706196150108317,
          0.000022220946245144625,
          0.000027254905705761007,
          -0.000020930050689772683,
          0.000002556976259129216,
          -0.00003265218026340263,
          0.000034011725017777805,
          -0.000022407702114459567,
          0.00002878150830030098,
          0.000019240792912639612,
          0.00004104121592346914,
          -0.00004722064805213527,
          0.000029861087713986225,
          0.00003845532591750309,
          0.00004553653370987766,
          -0.000012946797446571052,
          -0.000011598651000524782,
          -0.000017109315880582774,
          0.000028788080098437536,
          0.00002535418472981961,
          0.0000388490500649183,
          0.000003713295485842963
        ],
        [
          0.000032900098528904274,
          -0.00001817850305829445,
          0.000024594879367762847,
          0.000027948332405002236,
          0.000032494273420550657,
          0.000029657303189490147,
          -0.00003683046723999577,
          0.000007928160711081483,
          0.000005173322228449445,
          -0.00003919289259906919,
          0.00003198965099440695,
          0.000015900526111174662,
          0.00003112085577479023,
          0.000007369827146533158,
          0.00001103046845545016,
          -0.000023476144565258554,
          0.0000010733889926307097,
          -5.628393135843294e-8,
          0.000014391249838990987,
          0.00003252104848495065,
          -0.00004909855042834123,
          -0.00004026288957675876,
          0.000030809778546415185,
          -0.00003613595476141094,
          0.000041546652533837794,
          -0.000049646480422452395,
          -0.000011642780527213091,
          -0.00001737024716261999,
          -0.00002796182233005933,
          -0.00004344302780424011
        ],
        [
          -0.000007786591465419197,
          0.00006162699383473605,
          0.00001766377985201384,
          0.0000048788395365077345,
          0.0000017145410679038352,
          0.000009798992022890158,
          -0.000006863230740071085,
          0.000076115074685288,
          0.000015776901876681124,
          -0.000009139623241598871,
          0.00002157993870305119,
          0.000018141680003913324,
          0.00004877120341375316,
          0.00006976123829392619,
          0.00007906765761733547,
          -0.000005013708770859795,
          0.000009924098155802297,
          0.000024920849224410145,
          2.4803422530049527e-7,
          -0.000005087721074363807,
          4.635494287299892e-8,
          0.00006263185919529221,
          -0.00001749549611229184,
          -0.0000049775133967947855,
          0.000005210179480485481,
          0.0000393691348679207,
          -0.000005622103863047367,
          0.00007149655227156555,
          0.00003422374273633095,
          -0.00001269078422981032
        ],
        [
          0.00013154145202435368,
          0.00012405452888378541,
          0.000060725357712848965,
          0.00009901998319303233,
          0.00010327670061373546,
          0.00008325745011271914,
          0.00007476456047949528,
          0.00010022244311253026,
          0.00013173846994599494,
          0.00008906399896256619,
          0.00007434946108604646,
          0.00011710342027405718,
          0.00011076526998834935,
          0.00010715721161076369,
          0.000048672264257099016,
          0.0000697043258060744,
          0.0001136224608361702,
          0.00011165232126458446,
          0.00011906762557800147,
          0.00006834935108576188,
          0.0000890911772989811,
          0.000057542360837102154,
          0.00007884296269581372,
          0.00012956486693113943,
          0.00007566249903190629,
          0.0000778600199782728,
          0.00012380566605371253,
          0.0000726888489732278,
          0.00005248833826152217,
          0.00012717285298920853
        ],
        [
          0.0002649456604355004,
          0.00023293820213440597,
          0.0002504323955197776,
          0.00023205708137872524,
          0.0002665213613776353,
          0.00025105927645281066,
          0.000288784343120718,
          0.0002350040752851045,
          0.00028994910561763704,
          0.000257690445465526,
          0.00023885223995967416,
          0.00024001684553590812,
          0.00024840154025680276,
          0.0002951117182632173,
          0.000238744157768787,
          0.00023200521264020817,
          0.00028263761295777836,
          0.00020256694355787422,
          0.00019587955973352482,
          0.0002347895039429363,
          0.0002295279040215902,
          0.00019892810441625913,
          0.00025207410756169086,
          0.00025994538816961633,
          0.00024646332567621813,
          0.00023073277251338175,
          0.0002749782783320727,
          0.00026633683790080375,
