{
  "layers": [
    784,
    30,
    10
  ],
  "layerConfigs": [
    {
      "weights": [
        [
          -0.000017765862294567357,
          -0.000008083211827605719,
          0.00003968727422526379,
          0.00003280739025995292,
          -0.000025987147767433737,
          -0.000043894566542348825,
          -0.00003903760692190241,
          -0.000012996896493994226,
          0.000006292889393478251,
          -0.00003746906599510314,
          0.000004939654314743813,
          -3.7511793280311514e-7,
          0.000008194236798815412,
          0.00002118853767432116,
          -0.000008210011932647166,
          0.00000847972973429787,
          0.00004757361442454846,
          0.00004844991641376433,
          0.000008068222617736475,
          0.000004928277628331812,
          0.000043059885036547896,
          0.0000011806831526929296,
          0.00002141643594608462,
          -0.000007542319902911743,
          0.00001967759617799414,
          0.000011617651736589863,
          0.000021000022912780514,
          -0.000018847317632934302,
          0.000035717727310326566,
          -0.00004238261547003797
        ],
        [
          -0.00004202621148323367,
          0.000048877072091547324,
          -0.000024630455219451974,
          -0.0000493785293647,
          0.00004238792275539236,
          -0.000046108068298238904,
          -0.000028951194109824363,
          -0.00003314397227026386,
          -0.000025563333915021768,
          0.00000777505069553095,
          -0.000038416186682591504,
          0.0000469311411675176,
          -0.00003489661500042378,
          0.000007734922192260795,
          0.000017833651264689164,
          0.000017350072506959124,
          0.000027608034358273636,
          0.000034471997011880684,
          -0.00003356261008761552,
          0.000022826102761030497,
          -0.000046881930925879265,
          -2.626566784507123e-7,
          -0.000009201502015434393,
          0.000021894224695094122,
          0.000026190699052144795,
          -0.00001185167903748765,
          0.000025796775551641525,
          0.000043579140873516686,
          0.000037906692017119206,
          0.000009452302318856698
        ],
        [
          -0.000041508764935722684,
          -0.000040208785765757614,
          0.00003946206465657869,
          -0.00003745367694441808,
          -0.000014549746138407892,
          0.000048846161343969285,
          -0.00004798005060858601,
          0.000028815867839991528,
          -0.00002402926019507954,
          -0.00002624719480699167,
          0.000024819406924341524,
          0.000030466750949921085,
          -0.0000371492466622025,
          -0.00002405351775390594,
          0.00004693092828038175,
          -0.000005658843564042915,
          -0.00004176497921809008,
          0.00002009075693660185,
          -0.000014603316928053922,
          -0.0000415106775106727,
          -0.00004951456421547744,
          -0.000020035227006870882,
          -0.00002421922625726234,
          -0.00004734018987416986,
          -0.00004054555450481903,
          -0.000025316952085366353,
          -0.000021378643146998644,
          0.00003965535852797797,
          -0.00003400899748407322,
          -0.000020654934344082965
        ],
        [
          0.000008961677039296489,
          -0.0000055728236058375515,
          -0.00004303041740255162,
          -0.000024186514202791364,
          -0.000008898815746478195,
          -0.00003798936355989482,
          0.000009438895419359028,
          0.000036447588905977855,
          0.00001297553648766021,
          0.000027574452521889793,
          -0.00001772668113735336,
          -0.00002650006226591277,
          0.000009796201793222891,
          -0.00002957770146981238,
          0.000021587337277162777,
          0.000042478340106450485,
          0.000018509017891458336,
          -0.00004505254852284224,
          -0.000008678283821696907,
          0.00001430091569177998,
          -0.0000018635784074945372,
          -0.000047237743776944855,
          0.0000459338848362562,
          0.000021516433617220308,
          0.00002675275239138839,
          0.000020663759464451582,
          -0.000017708907919417085,
          0.000006913309916625155,
          -0.000036067046192415295,
          -0.00004984604481195356
        ],
        [
          -0.000013775688435251454,
          0.00004349165798804258,
          0.000002899231971437799,
          -0.00001472114089795773,
          -0.00003448473240638674,
          -0.00004733453415198625,
          -0.000041885135058513015,
          -0.000030446563656279714,
          0.000019664586607338808,
          0.000013497974605025332,
          -0.000037706302868595174,
          -0.00002241399309562462,
          -0.000029155261221798544,
          0.00002987390457276271,
          -0.00004364633665437281,
          -0.000012343874742514216,
          0.000018232212892541423,
          0.00000689925399563065,
          -0.000027661513995183883,
          0.00004237978779582252,
          -0.0000293070926489436,
          0.000033833313644962784,
          0.00004487178403561598,
          -0.00003916145265155227,
          0.00001346612326330392,
          -4.437353877821293e-7,
          -0.000028708733145863263,
          0.00002617064167922465,
          0.000012905482457340423,
          0.000005385994084553891
        ],
        [
          0.000035660016142774143,
          0.000008032867409138156,
          -0.000019056475119339476,
          0.000011007669919283658,
          0.00001805776940325774,
          0.00003649800938890631,
          0.00004620359563610328,
          -0.000002258320845565831,
          -0.000011882222541934829,
          -0.000014193722604036774,
          -0.000011091788409223912,
          -0.000039810751278606607,
          0.00004162404029662317,
          0.00003161264809146567,
          0.00004039753512659121,
          0.000023152787087421055,
          0.0000197982183892913,
          0.00002877223194876961,
          0.00002968550552474378,
          -0.0000028849425354955604,
          -0.00003036229009039799,
          0.00001616035567247658,
          0.00003328670627335553,
          0.00001817867545791143,
          -0.00004121772731798212,
          0.00003688796044382896,
          -0.0000467516332737733,
          -0.000022762422844927644,
          0.0000269369189219939,
          0.000015342368466654154
        ],
        [
          -0.000021201918551643238,
          -0.00003264109182346648,
          -0.00000512421023291334,
          0.00004628562521757662,
          -0.0000338566103106968,
          0.00002244107007801499,
          -0.00001802764227751499,
          -0.0000037632391340024273,
          -0.00002908308422032544,
          0.00003100009619042643,
          0.000033728279756987134,
          -0.000015522906124721603,
          0.00002980878346036826,
          -0.000029610182526900284,
          0.000041070986602042805,
          0.00002495335801357037,
          0.000046187289104319196,
          -0.00002239632534503977,
          0.00002524772212874913,
          0.00004168615847578612,
          0.00004871554182082791,
          0.00003935528931882406,
          -0.000047356246467593424,
          -0.000027129663854565456,
          -0.00000752997021447257,
          0.000030221612538166996,
          -0.000005403484972028893,
          -0.000010702194462892222,
          0.00004957730659989501,
          0.0000021604672058638697
        ],
        [
          0.000011934517597594896,
          0.000039059948593213975,
          -1.4654384340480054e-7,
          0.0000473446177933845,
          -0.00003156059190659808,
          -0.000006321171213034038,
          -0.000010315392657733468,
          0.00003315224491967521,
          -0.000006264163611924655,
          -0.000022222078023193292,
          0.000028668282998502457,
          0.00002957561341143682,
          0.000003990930733170473,
          -0.00001601685176160479,
          0.000012678617087145261,
          0.00003905012707648692,
          0.000026904219731881174,
          0.000013903814772497137,
          0.000048614306524563285,
          -0.000005206034459139874,
          -0.00002635504368949919,
          0.000048449834535844086,
          0.000019428961779970133,
          -0.0000049166054062659505,
          -0.000006948248441920635,
          -0.000014439496102682559,
          -0.0000274491542709276,
          -0.00002934648588174056,
          0.00000726323872761383,
          0.00003154422596707354
        ],
        [
          0.00004707561409368546,
          -0.000003394277438160587,
          0.000023053731992108584,
          -0.000010901109484933946,
          0.000030149985208993636,
          -0.000025646071537628545,
          -0.000028047409128851685,
          0.0000359742862380402,
          0.000033812012646690716,
          -0.000036439977207619045,
          0.000014184955526708975,
          -0.00002607846577383921,
          0.000013252654322509082,
          -0.00003597413603133204,
          0.00001022452228467059,
          -0.000025907248053691134,
          0.000010863001771059388,
          0.00004500947814028127,
          0.0000014190068161991087,
          -0.000026382073157837406,
          0.0000050226592946634565,
          0.0000037540343215361594,
          -0.0000467465156187824,
          -0.000005446625325165111,
          0.000007552443866716696,
          -0.0000464980016614281,
          -0.00004188163804742631,
          -0.0000035756657409748982,
          0.000036305543728275056,
          -0.000005092086229870163
        ],
        [
          0.000045292453372781984,
          -0.00003403160973006232,
          0.00003933514652909769,
          -0.000023110180696448768,
          0.00000127703115005533,
          -0.0000014061959481482366,
          0.00003091455921654702,
          -0.0000028132582290133266,
          -0.00003692138685963813,
          -0.0000034279801624264026,
          -0.000006417510201515442,
          0.000020898302543478465,
          0.0000021696135111346714,
          0.000024552077714249256,
          0.00004524111489422018,
          -0.000035026819474352864,
          -0.0000468143479137892,
          -0.000013437122669231849,
          0.00002833214538287383,
          -0.00003254109948474162,
          -0.000009432977255267371,
          -0.000049837979161777013,
          0.000010932850665437631,
          0.00004990858306746751,
          -0.00004657368152444421,
          -0.00004404530561307469,
          -0.000025603518189843566,
          -0.000012572450255798673,
          0.000027625485095709567,
          0.00001119807985427108
        ],
        [
          -0.000010408720407438876,
          -0.000039291120944452506,
          0.000008131288498490673,
          0.000027359095667004473,
          0.000048403878938412446,
          -0.00004064688486645356,
          -0.00004265835290657169,
          0.0000487563011196789,
          -0.0000373248242581691,
          0.000040705170696085946,
          -0.0000017578995215767668,
          -0.000028537802131491242,
          -0.000044796559174483,
          0.00004559334288847445,
          0.00002921926021362231,
          -0.000005581875901966949,
          -0.00004411725157552682,
          -0.00003232585994912964,
          -0.0000412598943137207,
          -0.00003577556465548124,
          -0.00001397504611912428,
          -0.0000069951477618200195,
          -0.000022167987140507783,
          0.000032735562086932226,
          -0.000017183604792688235,
          0.000006785715677014292,
          -0.00002273225185567176,
          -0.000049083580505640015,
          -0.000026050013543616356,
          0.000012637479570787402
        ],
        [
          0.00002389339358765963,
          0.0000315421200269387,
          0.00004163786801551208,
          -0.00004124625715185326,
          0.00002438016247882022,
          -0.000031746142789120335,
          0.000008248520167872098,
          0.000030436366344930897,
          -0.000011583313593308131,
          -0.00002162747499234814,
          0.000011917301475659569,
          -0.000015895467929842822,
          0.000031736315458410515,
          -0.00004481145687312338,
          0.000019904594798965826,
          -0.000034089212537238424,
          0.00004506106865966475,
          0.00003632546696432841,
          0.00002230170474845754,
          0.00003754622367989593,
          0.000010350772899750705,
          0.000010800002597703684,
          -0.000049717616970240974,
          -0.00003083357019125465,
          -0.000010490032073607036,
          -0.000006685814501564713,
          -0.0000018430538215357118,
          0.00003577841288605992,
          -0.000010730340874570277,
          -0.000019611335412694776
        ],
        [
          -0.000040129738671631947,
          -0.00001898156573897773,
          -0.000031230720471655355,
          -0.0000483738170236462,
          -0.000044001700596125995,
          0.000038820438947754966,
          0.00015454714187588652,
          -0.000004938650633940398,
          0.0008651575770733906,
          0.000020627285722453863,
          0.000041574182466251315,
          -0.000131206746614393,
          0.000013090511933627387,
          0.00011565606963179753,
          0.00006803221301315018,
          -0.00023611226711662498,
          -0.0000108245364193436,
          0.000032766363420187537,
          -0.00013655716067441297,
          -0.00004380196171166613,
          0.000018128486709230247,
          -0.00007122499637548789,
          0.00004047993582222004,
          0.000023528676946165402,
          0.00003385648373834086,
          0.0000012742825148771536,
          -0.000012828947443970497,
          0.000023239369981087327,
          -0.0011486424709539532,
          -0.00007435200576279571
        ],
        [
          -0.00004769662068910838,
          -0.00006200189982227692,
          -0.00004216508988612246,
          -0.00009800529213019751,
          -0.000059422957698516344,
          -0.0000772497507857168,
          0.00011746814970354365,
          -0.00004391945918038527,
          0.0017373681034083283,
          0.00005053437371740453,
          -0.00009440649135713992,
          -0.0002773691529190222,
          -0.00009331094370022137,
          0.0001838771045954102,
          0.000008237835264976436,
          -0.0007438257758736299,
          -0.000053243248765224435,
          -0.000060126662866276585,
          -0.0004172980870708093,
          -0.00007263755376603234,
          -0.00016304911559380736,
          -0.00010074579422249932,
          -0.0002164851485950673,
          -0.0000630191989354419,
          -0.00007051781418594142,
          -0.00006990727936199677,
          -0.00003898095246079985,
          -0.000017740130294241192,
          -0.0028180056599040326,
          -0.0003398716562632197
        ],
        [
          -0.00006211691746301876,
          -0.00011181576155029627,
          -0.00008848564046569024,
          -0.00005543353794954285,
          -0.00012247558074016896,
          -0.00006441223596200726,
          -0.00016813999242754077,
          -0.0000479814143226076,
          -0.00017617773933072977,
          -0.00003994429784751622,
          -0.00005118633268653802,
          -0.00007750077492532759,
          -0.00006969836350191652,
          -0.00004175631641908625,
          -0.00003781664532960053,
          -0.00006957922989199656,
          -0.00012713296214729607,
          -0.000058832143500439106,
          -0.000032671592917071146,
          -0.00012674378766165366,
          -0.0001746134949838863,
          -0.00011458375127566521,
          -0.00021291751416783984,
          -0.000042878793120591885,
          -0.000046842342247436815,
          -0.00008356251442087525,
          -0.00010935720478406681,
          -0.00011425873227564364,
          -0.0002601307855729604,
          -0.000048497397266234015
        ],
        [
          -0.0000012879234956369006,
          -0.00002956302447172357,
          0.000011596241265369884,
          -0.00002291355868088662,
          0.00003129198286213263,
          -0.00004150038977814039,
          -0.00005040123002752837,
          0.00001917442787981542,
          0.000004779042166300064,
          0.000027005647340742852,
          0.00004040406342114461,
          0.000018279284492281416,
          -0.00003450855268587963,
          0.0000415706524268488,
          0.00001106666893515963,
          0.000026067415363809655,
          0.000027296376995999716,
          -0.0000011566270399426814,
          0.000002428338028245593,
          -0.00002559684197504963,
          0.000036992732592441145,
          0.00003691573410067072,
          0.00003581463242195824,
          0.00001742493784003552,
          -0.000024709946707300014,
          4.4765311942226324e-7,
          -0.00001992024304906177,
          -0.000018403976971021623,
          0.00000985833747003167,
          0.000012396431961729562
        ],
        [
          0.000038274538181678055,
          0.000002765045253256937,
          -0.000010993420835273193,
          -0.00003576677140648428,
          0.00004399191994053893,
          0.000043057217951167705,
          -0.00004586989785497455,
          0.000022477118537363117,
          0.00004812929966400619,
          -0.000003477141743218848,
          -0.00003778750209950217,
          -0.00004244177960722229,
          -0.000024586912380538272,
          0.00004071576271320518,
          0.00003123652221451998,
          0.00004891425198660773,
          -0.00004804948315995128,
          -0.0000020504294417177828,
          0.00002349457452567798,
          -0.000019590085221660458,
          0.0000179263634651468,
          0.00003306160218171068,
          -0.000028873714091225478,
          0.000017029658387569092,
          0.00004189148501965436,
          -0.00004450785747431316,
          0.00004954851995739265,
          0.00000727699261446888,
          0.000027503927520932137,
          -0.000016151320821008318
        ],
        [
          -0.000019458235852566053,
          -0.00004782228334298124,
          0.00003048712327122487,
          -0.000028435226236202848,
          0.00000874362510421518,
          0.00000797592649428407,
          0.00002453132554764672,
          -0.000023899562262709596,
          -0.00004939115058759123,
          0.00003229560339590565,
          0.000025905347682965883,
          -8.698889415345245e-7,
          -0.000004884150022555866,
          -0.00003494660667136862,
          0.000009858105182282361,
          0.000028637510117960717,
          -0.00003161509635903492,
          0.0000072702104581735536,
          0.00004891554418522079,
          -0.000002288960408248175,
          -0.000021947994791337977,
          0.00003740929226466001,
          -0.000009039319268943591,
          -0.0000293510494864075,
          -0.00001869416180357679,
          0.000003692602251827748,
          0.000024529223498478458,
          0.000014898056611684574,
          0.00001736300832633819,
          -0.000013798065903054724
        ],
        [
          0.00003973089556243079,
          -0.000024033022141760974,
          0.000004308726488700954,
          0.000011604909077041437,
          0.0000156307070838174,
          -0.0000038237063445452966,
          -0.00003699915411453887,
          -0.00004572397034855951,
          0.000047816441292982304,
          -0.00003101646006037349,
          0.000022550564412665387,
          -0.000035075167608949796,
          0.000031902793708287124,
          0.00004893862059523297,
          -0.000012099918075979343,
          0.000044053654956421725,
          -0.00004862791810841165,
          0.00000541022413488621,
          0.00003214827012678143,
          0.000004815755214296824,
          0.000023346041415901175,
          0.000014628321811830359,
          0.00003825794455013378,
          0.000018174492289221743,
          -0.00004788775098895488,
          0.000008137419783856203,
          -0.00001979969903243155,
          -0.00003166377584195816,
          0.000017920241423557616,
          -0.000006954873486635882
        ],
        [
          -0.000022880404873421357,
          -0.000008418545072012829,
          0.00004128811092474476,
          -0.000024110439348627244,
          -0.000039802650272245545,
          -0.000032946783863776716,
          0.00004312630679057217,
          0.000004499032281492399,
          0.00002756596372686204,
          -0.000022234761248954492,
          -0.000029030111983041063,
          -0.0000037826058957135976,
          0.000009982941785995925,
          -0.0000015185525750259554,
          0.000002525071980926796,
          0.000022126546632852096,
          0.000026353394875494705,
          0.000031369014625657555,
          -0.000012832328113069314,
          -0.000009429479729482382,
          0.00001936655684520632,
          0.000010459831941765652,
          -0.00001598648446344486,
          -0.00004618509094840912,
          0.000020538090647599306,
          0.00000465743796592526,
          0.00003061124017165593,
          0.0000332255907705461,
          -0.00004176250629728653,
          -0.00003310027218627107
        ],
        [
          0.000014355487869396089,
          0.000025108174224038436,
          0.00003718303124015894,
          -0.00000915541090193519,
          0.00001779905679563598,
          0.00002723844054375808,
          0.0000016728988096217145,
          0.000023713171355152674,
          -0.000010222132636364179,
          -0.00003310447995887526,
          0.000012822054991442933,
          -0.000013864387987591131,
          0.0000255495576760127,
          0.000015906932452611123,
          0.0000198899251983387,
          0.000019980152391866235,
          0.00001762554258205955,
          -0.000015543970184040968,
          -0.000023338893734958656,
          -0.000008704454183503319,
          -0.00003660949395555133,
          0.0000276792949609743,
          0.00002986244153847306,
          -0.00001031784493254908,
          -0.0000075294164305092395,
          -0.00002835170932722404,
          0.00003806185399352229,
          -0.000012511831061590928,
          -0.000014131726075181228,
          0.00002688793842678148
        ],
        [
          0.000048769872070712396,
          -2.7153160144313125e-7,
          -0.000022444489360105946,
          0.000015368552439617234,
          -0.000021786348060549354,
          -0.0000314734846353472,
          0.000004287766557107386,
          0.000019157958990490866,
          -0.00003612632637577486,
          0.000018540659452556807,
          0.000023351675008984896,
          -0.000003749708306858657,
          0.00004801547784779601,
          -0.000012026728050190205,
          0.000006218458163195639,
          -0.00002195887970373327,
          0.000008777765853062468,
          0.000022536485269749384,
          -0.000040249166300188376,
          -0.000025701682295089422,
          0.00003496328588879702,
          -0.00004955378889249937,
          5.483549908311236e-7,
          -0.00003525941791029923,
          0.00002239381212556113,
          0.000021788932903967485,
          -0.000019842967222180953,
          -0.000027884533888979334,
          -0.000006691073093512112,
          0.00004890269839444545
        ],
        [
          -0.00003564348559906865,
          -0.000003429213967912714,
          0.000026593704145549402,
          -5.384826240385498e-7,
          -0.000013340891556460033,
          -0.000018405479767869083,
          0.00004099618074440514,
          -0.000007477249727275614,
          -0.000033162132688008806,
          -0.000007516692066457664,
          -0.00004021781241427202,
          -0.00001812432835263973,
          0.000010498914981216268,
          0.000023757761328872527,
          -0.000002299530982126363,
          -0.00003028158001983261,
          0.000019752800230212552,
          -0.000033235196303369416,
          -0.0000056444535978931395,
          -0.000008862481165501434,
          -0.000017669996153383248,
          -0.000016040296229060425,
          0.0000067892620946547136,
          -6.98259765205922e-7,
          0.000008756655139904334,
          -0.000011492651198755798,
          -0.000035385563150496946,
          0.00003920367526029338,
          -0.000013172070707719663,
          -0.00004216366195673074
        ],
        [
          0.000027997214248982762,
          0.000034406149933032057,
          0.00004365308212443253,
          -0.00004499464952309302,
          -0.00003893498185719446,
          0.000049929856477285784,
          -0.000007696788767825957,
          0.000048513071968066714,
          0.000025320366801303874,
          0.0000485632866944824,
          0.00003481972094759169,
          -0.000004845591312657116,
          -0.0000034113184550551567,
          -0.000020527096852423222,
          0.000007368299613303963,
          -0.000009601171922053276,
          0.000025892534479443087,
          -0.00000610324343372799,
          0.000003991761434111196,
          -0.000046245706651061493,
          -0.0000489801585105857,
          0.000047831248559417714,
          0.00001041040878192121,
          0.00004674763192752511,
          0.000044151229972489434,
          -0.000006297416552368662,
          0.00002294638326137941,
          -0.000016933351663433107,
          0.000011964040283075894,
          0.00002071487302920916
        ],
        [
          3.9356549505860093e-7,
          -0.000009889932598016205,
          -0.000002449326306332722,
          -0.000014098700648890983,
          7.193845190001102e-8,
          0.00004846397823827448,
          0.00003935819384633425,
          0.000032820806504957064,
          0.0000376538731449666,
          0.000015431518288198067,
          -0.000018825447178953934,
          0.00003340434123749068,
          0.00003715232933486443,
          0.000026385066335986162,
          -0.00001708106655526085,
          -0.00003636829009418421,
          0.00001617816536651382,
          -0.000046035092991749435,
          0.000018411839587275124,
          0.000004923214466222614,
          0.00002043585292574235,
          0.00004743539996669788,
          0.0000277022665288819,
          0.00004783990113027337,
          -0.000002970954544750004,
          0.000029519668666566544,
          -0.000008326794516986258,
          0.0000071142578051476945,
          -0.00003984211820170993,
          -0.000018137730953741006
        ],
        [
          0.0000482547603591746,
          0.00003066280355670099,
          0.000014159364336308221,
          -0.000018614957011434853,
          -0.00003145427875613311,
          0.000006455671025544163,
          -0.000027508860526857347,
          -0.000022937286816426526,
          -0.00002114686718976717,
          0.00004374223814230487,
          0.000007095601598421486,
          -0.000032796391013387625,
          -0.0000309649758691714,
          0.000006008023946401964,
          -0.00001184123910711159,
          -0.00002031928723642362,
          0.000015429002659889203,
          -0.000009811323396846804,
          -0.00002104814657183831,
          0.00002051117392900925,
          0.00003006665941353648,
          0.000010730944714090883,
          0.00003101379391260184,
          0.00003030354499606174,
          -0.00004512075118052272,
          0.000012320439442580788,
          0.000013596179393395214,
          0.00004311489849859522,
          -0.0000025151585639492823,
          -0.000004437459844487557
        ],
        [
          0.00001680693208088997,
          0.000002230016610761076,
          0.0000309590206457381,
          -0.00004669294047574886,
          0.000014309065211256277,
          0.000009516170087241282,
          0.00004246309773472015,
          -0.000035370894446629733,
          -0.000008098058285492971,
          0.000017003701892124323,
          -0.0000011201531679335243,
          0.000017101198312858656,
          0.0000469902417938048,
          0.000014450394709077364,
          0.00004447666022054235,
          0.000045207842001638676,
          0.00004117594859822076,
          -0.00003469441840481999,
          -0.0000076096101308992916,
          -0.00000491000149552967,
          8.674412130167398e-8,
          -0.000037751782869518213,
          0.000024222351674728105,
          0.00002911334540099928,
          -0.0000234696481640295,
          -0.00003716782733306212,
          -0.000023011205804494585,
          -0.000012042093049424896,
          -0.00004582512161952785,
          0.000006785368675442105
        ],
        [
          -0.000018744256537074544,
          -0.00002149836375980543,
          0.000017004867805614432,
          0.000026159109246743828,
          0.00003584801790903127,
          0.00003764872519887097,
          -0.0000396594985451989,
          -0.000007150559515862964,
          0.00004781320754844496,
          0.000012339532759790428,
          -0.00001615533589714908,
          0.000031174397793932183,
          0.000024022688161820315,
          0.000016817567950829824,
          0.000009844250197330906,
          0.000014840347681425725,
          -0.00003839655958687287,
          -0.000010560895654048652,
          -0.000027703294142199474,
          -0.0000414863672031506,
          0.00004405826162932538,
          0.000015335264907314937,
          -0.000015784388123424553,
          -0.00004680968151488367,
          0.00000363588141984077,
          -0.000032344929299474525,
          0.000010193279310752756,
          -0.000011217453126490385,
          -0.00001233678342645681,
          -0.00002526803927282273
        ],
        [
          0.000028907186781375983,
          0.0000024515443987334294,
          -0.000017373286199266192,
          0.00004123120588732854,
          -0.00001944042499222962,
          0.000019043625493748407,
          0.000029051032133695976,
          0.00002824424145811999,
          0.00002991817959262708,
          0.000008369404902250821,
          -0.00002843642911027564,
          0.000017328882870042682,
          -0.000033637658387992376,
          -0.00003428609755254617,
          -0.00003285685581002686,
          0.000008409590570934533,
          -0.00002925837582501638,
          -0.000005520274431887739,
          0.000022396170979970396,
          -0.0000281213767576348,
          0.000018189742405825538,
          0.000018656769083491054,
          0.0000430574767015226,
          -0.000028200072505899597,
          -0.00003147760673340361,
          -0.00003212562550794247,
          0.000010306377373230124,
          -0.000047608784504878244,
          0.000019391407717452713,
          0.00001874166840017393
        ],
        [
          0.000009931046105832575,
          0.000023255581274542636,
          -1.0721248745260148e-7,
          -0.0000011204037319410443,
          -0.000043133985109363436,
          0.000009222590698873723,
          -0.00002103537562476745,
          -0.000007215706247882458,
          -0.000024883420396297162,
          0.000019695194048128694,
          0.000023551598863133673,
          0.000022220965789719527,
          0.000030378970942790384,
          0.0000284767596868158,
          0.000012431855264182067,
          0.000011365852233804486,
          0.0000029021802194783007,
          8.5110181690502e-7,
          -0.000009100396281466505,
          -0.0000026816060888779746,
          -0.00001000875868162172,
          0.00000176988373384237,
          -0.00003132519958716737,
          -0.00003207892744507459,
          -0.00003104133370093798,
          -0.000048149691809418104,
          -0.000001079784968919273,
          -0.000006606074905288328,
          -0.00002670548960873167,
          -0.000039479526209022664
        ],
        [
          -0.00003616801490351918,
          0.000017668492567731754,
          -0.000004214835381148529,
          -0.00001164404478651897,
          0.00004221738554018153,
          0.000019665458633394773,
          0.00002828509314797831,
          0.00004261793602003459,
          -0.000006852933251103322,
          -0.000005016208427314029,
          0.000023897607645227838,
          0.000009294502148670758,
          0.00004605660284887925,
          0.000030505104932577943,
          -0.00004270683334401648,
          -0.00003838720614902171,
          0.00004003250493744697,
          0.000006699924678762659,
          -0.000033158989424970154,
          -0.000031254892527313195,
          -0.00000763649453520172,
          0.00001410872822488749,
          0.00001685330138017047,
          -0.00003159149735683615,
          0.000011876906193206138,
          0.000009827687239044724,
          0.0000030249178848641203,
          0.000028002987483116846,
          0.0000012146206140208449,
          -0.00001893124528486374
        ],
        [
          -0.0000347738514451023,
          -0.000041457277691170066,
          -0.00004204075153609143,
          0.000049635350643012233,
          0.000004316274844662571,
          -0.00004105668799154514,
          0.00000742838452236676,
          0.000031452075643300234,
          -0.00002126578045730887,
          -0.000004301131611585207,
          0.00004722906079157445,
          -0.00003576379230277298,
          0.000029517174839896178,
          0.00004175738119663399,
          -0.000036628281916429284,
          -0.0000470768354995855,
          0.0000018782929310109385,
          -1.4376658568064915e-7,
          -0.000031133761483327405,
          0.00003864482254785513,
          0.000031050552328687495,
          0.00000896314063012149,
          0.000006179986445464181,
          0.00001937255452939668,
          0.00002758929696375816,
          0.0000012098187667922921,
          -0.000030272943190307423,
          0.00003297133920437931,
          0.00002890497665340719,
          -0.00004357281858626547
        ],
        [
          0.000049067876773571493,
          0.00004144180519444197,
          -0.00003741876208772748,
          -8.002328920848675e-7,
          0.000049326430332312734,
          0.00004064136913598404,
          0.000014835770492783425,
          0.0000019513505043192714,
          -0.000035350424725299546,
          -0.00001299889980733568,
          0.000025397504038683537,
          0.00003523688421810897,
          0.00002557518655002155,
          -0.000010072394403199828,
          -0.00002905630911014956,
          0.00003761432725190816,
          -0.00001792511277750226,
          -0.00004473097376830735,
          -0.000042820799636233286,
          -0.00004136545895522587,
          -0.00003247611818413618,
          0.0000221913408182126,
          -0.000022084108502976004,
          -0.00003430282839385758,
          0.00004072210653797903,
          -0.00001512373503545753,
          -0.00004761166949944212,
          -0.000037441174304159406,
          0.000027571675140419896,
          -0.00003251215574075277
        ],
        [
          0.000029366132757606906,
          0.000049531603373598376,
          0.00007403629491410775,
          0.000004617013963246884,
          0.00004606841756721542,
          0.000013361864149245203,
          0.00000319851229144071,
          -0.000030189996509427407,
          0.00003139309204888056,
          -0.000025141229818899576,
          0.000030882041869373325,
          0.0000402715407880081,
          0.00003634244933107739,
          0.000004697753951359042,
          -0.000007078216483811256,
          -0.0004628049243947567,
          0.0000437530841826855,
          -0.00001496848883752769,
          0.0000293712907021734,
          -0.00004795544030924336,
          -0.000012163087679452781,
          -0.000027073733107591638,
          -0.00003419715940670889,
          -0.00003584726079861252,
          -0.00003964985023854301,
          0.000006765311515869056,
          0.000005699649803641338,
          0.000052416285315375385,
          -0.0005829191039287219,
          0.00004121312557304456
        ],
        [
          0.0011977863976117206,
          0.004154444035791417,
          0.005046178896124298,
          0.000011697010207319829,
          -0.000007074018538034451,
          -0.00004355936170389865,
          0.000013204419819297037,
          0.00011323837973337769,
          0.00526184461473058,
          0.00027293600267069493,
          0.00006527519356153356,
          -0.0003725789854754661,
          0.00010479371657417184,
          0.0038991824013155053,
          -0.00021095353901815669,
          -0.038429960214037856,
          0.00009353150388729944,
          -0.00002721110435439729,
          -0.0007329277526463525,
          -0.000014923601176706843,
          0.00010277159294737201,
          -0.00001727624312067058,
          0.00009499472842660631,
          0.00003597588109634584,
          0.00007132661459446424,
          0.00003871431334955153,
          0.00003331344963499872,
          -0.000007594820911532183,
          -0.0600476381839789,
          -0.0004803135965520666
        ],
        [
          0.002357143322077841,
          0.009939400643810742,
          0.01061870622055382,
          0.00007835063488724966,
          0.00003149383249389629,
          -0.000020902951981384274,
          0.0000730149777638451,
          0.00022077066626096606,
          0.013022911567795262,
          0.0007268566686134133,
          0.0001353058223259134,
          -0.001017462451868014,
          0.0001662022284779599,
          0.008779062593934335,
          -0.00043081797637881044,
          -0.08161532230849596,
          0.0001661542930476412,
          -0.00005820307821447677,
          -0.0019572050693957743,
          0.00004795881667250072,
          0.00017456909975818792,
          0.00020346018356058278,
          -0.000015512100484473163,
          0.00010332816759675979,
          0.000016997798137291433,
          0.00006997430858032463,
          -0.00003392964481952473,
          0.00006169478321097475,
          -0.13191448579284254,
          -0.0007584834481942845
        ],
        [
          0.001624409461748929,
          0.008571874599221974,
          0.005988497446354111,
          -0.0018017327865831342,
          -0.001595127062309323,
          -0.00014636546684747179,
          0.000014234638645980167,
          -0.0009365712402804747,
          0.02773037989122911,
          0.004600434636487608,
          -0.0012828391059766593,
          0.0020429227996127783,
          -0.0009350523219142194,
          0.0051859080951334085,
          -0.00067655920958401,
          -0.05889016644920415,
          -0.0010908588366802935,
          -0.0011589529126023257,
          -0.005399458817743588,
          -0.001590331186792813,
          0.00012475904126576137,
          0.0005322466409380086,
          -0.0007696878144797563,
          -0.001359901236837415,
          -0.002137734601333025,
          -0.0013434748040081,
          -0.0008863988948054416,
          -0.001902857469543417,
          -0.12407414264734783,
          -0.0004839631392909462
        ],
        [
          0.00031238724742882907,
          0.0019120732716603266,
          0.0005288212759580214,
          -0.001499756734236243,
          -0.0012971366928765497,
          -0.0003707278785504497,
          0.0010515183131390607,
          -0.00063569344307848,
          0.008855928043282023,
          0.004827725933151752,
          -0.0010022535338123375,
          0.0010019990085327057,
          -0.0009419199295316606,
          0.0008872544833198436,
          -0.0006816020710785555,
          -0.022325152992591444,
          -0.0008753957437494745,
          -0.0006576653932675119,
          -0.0035690822784128105,
          -0.0013905676102532688,
          -0.00032830944073427583,
          -0.000043557933187023054,
          -0.0007648341104792419,
          -0.001096307781979078,
          -0.0017556605972658505,
          -0.0011355645113599214,
          -0.0003544893982890254,
          -0.0014468411072839239,
          -0.03782312689515573,
          -0.0031238929927859295
        ],
        [
          0.0020848809705370616,
          0.003739515924777932,
          -0.00044419795034004084,
          -0.0012621238704604394,
          -0.001045464874449807,
          -0.0008281187580878288,
          0.0027685735509315967,
          -0.00013672772000232863,
          0.013723796242629612,
          0.005427607836017282,
          -0.0008973865626031458,
          -0.004071646788419687,
          -0.001107096757926758,
          0.0017361725497213856,
          -0.0005686813445303958,
          -0.044602245100730666,
          -0.00029378905487258155,
          -0.0006514170442354852,
          -0.003918122021019579,
          -0.0011215478860038084,
          -0.0016992748907690338,
          -0.00020710264750893855,
          -0.0030821662348595093,
          -0.0010372712037288797,
          -0.0013759753590072343,
          -0.0010016847224785038,
          0.00021657325291095608,
          -0.000849316462975632,
          -0.06699882569464714,
          -0.014586686909356314
        ],
        [
          -0.0005468061454732436,
          -0.00007799231045910852,
          -0.0013478889731622166,
          -0.0004903125922041655,
          -0.0006725900526678743,
          -0.0008982441646801,
          0.006522129925113169,
          -0.000032316667827873765,
          0.02098339083146323,
          -0.0027425472572514265,
          -0.0003012966171749976,
          -0.008010958216075845,
          -0.0008941904725515295,
          0.0020393564171284997,
          -0.00022403696852845621,
          -0.055383470893456604,
          -0.0002550232505223984,
          -0.00044270475550782463,
          -0.006294389663651741,
          -0.00043444755744875135,
          -0.0021277234638300913,
          -0.0003266630236540885,
          0.002195745214636926,
          -0.0005115583545590287,
          -0.0005428215559769512,
          -0.00037399855379946354,
          -0.0008703108530268692,
          -0.00011221485618292346,
          -0.08675859747837257,
          -0.022005699986343465
        ],
        [
          0.0015893048333154533,
          0.003367268135232853,
          -0.00009208916293972086,
          -0.0005528580250742347,
          -0.0009165217963772858,
          -0.0012723399197000216,
          0.016236636088505015,
          -0.00011000301400511775,
          0.026916493232382804,
          0.007650891157381297,
          -0.000346908347323796,
          -0.017204999802315046,
          -0.0006680711682356489,
          0.006275206961191722,
          0.0007046628337134766,
          -0.10465169498899539,
          0.000021535398606324187,
          -0.0010300991474052903,
          -0.007654946265979738,
          -0.000531406713218528,
          -0.001442794549763795,
          -0.0013779908091317713,
          0.011070278629055564,
          -0.0005307934667636079,
          -0.0006732050441370636,
          -0.0004399704677496754,
          -0.0008422790170520315,
          0.00040403333157259657,
          -0.14170373503327324,
          -0.018525241937080505
        ],
        [
          0.0022998243478524207,
          0.0032629503695236197,
          0.002174303027717305,
          -0.00038317921373753455,
          -0.0014944913778970864,
          -0.0007753869787952129,
          0.0019319465772861882,
          -0.00013322112244186892,
          0.022727556828003724,
          0.01093796870070416,
          -0.0001315483250422977,
          -0.007454168645220873,
          -0.00017784541419399173,
          0.002835254642837667,
          0.0013874020550140888,
          -0.05467562144666745,
          -0.0006616875013086992,
          -0.0004201429729003737,
          -0.002127039914214723,
          -0.0003660999324505387,
          -0.00026620340739472533,
          -0.00025864661733927715,
          0.0049562634071726765,
          -0.00031496316129739425,
          -0.0010186890644793877,
          -0.0002306134670100874,
          0.00045331943103595214,
          0.0008058110085802276,
          -0.07880037550956864,
          -0.013417357745302056
        ],
        [
          0.0010294596917924158,
          0.0005334191027948634,
          -0.0016256368165354425,
          0.00894184128963625,
          0.005212718703845029,
          0.0024727827186261007,
          -0.004856183299268001,
          0.005857372564281533,
          0.004902877960816786,
          -0.005820248739282867,
          0.011204910553545812,
          -0.01941996247462007,
          0.0074233510382058394,
          0.004119492741186542,
          -0.00022764716600636264,
          -0.025743889325687493,
          0.003562490135315788,
          0.0019961835583993098,
          0.0017583542747681088,
          0.006341191237007809,
          -0.0026514502726266444,
          0.0014744405499342256,
          -0.001596008466532343,
          0.005391692438582578,
          0.010165879361143295,
          0.008809091205114819,
          0.003535541287597788,
          0.013053056584985272,
          -0.0215075026596737,
          -0.031054350715674355
        ],
        [
          0.005829130808211237,
          0.0005961217616478868,
          -0.0003803263211148009,
          0.01531632560352867,
          0.01359990189754445,
          0.005801208885565576,
          0.012429968492650711,
          0.010279756680285653,
          0.0055117083533655475,
          -0.0009072464617744904,
          0.01647558649493018,
          -0.0258296965635953,
          0.009453361549110653,
          0.010457364409513116,
          -0.0015872765458460419,
          -0.03747853833834142,
          0.01020222074873486,
          0.0021177005857201297,
          0.0034961728983523323,
          0.011105624900134684,
          -0.004957887442844569,
          0.004341784900237533,
          -0.00607541183690566,
          0.00961842284697142,
          0.018981910339882026,
          0.014145607217394938,
          0.006950105095466555,
          0.023767707055357367,
          -0.05059809891540823,
          -0.05437505769648149
        ],
        [
          0.01029909892078712,
          -0.00004602337641273403,
          0.0010978675149906432,
          -0.004975771872932394,
          -0.005813824508501567,
          -0.0008481716886712484,
          -0.04298178896871336,
          -0.0011740651875868165,
          0.017348281090274198,
          0.028375619412027448,
          0.0016883636769888099,
          -0.007443225720207837,
          0.00550939228408894,
          0.011307623808311186,
          -0.003668999256825757,
          -0.02689579784580159,
          -0.004180723430250979,
          -0.0010115623069429141,
          0.01159102874348002,
          -0.004210095614439413,
          -0.006652565314676882,
          0.007889656252832868,
          -0.009254977215421916,
          -0.0010794005743216878,
          -0.006013112623628616,
          -0.0002356974561555721,
          0.0028660962353589947,
          -0.0007891254536583311,
          -0.05457874007400292,
          -0.025109647753003023
        ],
        [
          0.005416471234345352,
          -0.0003635880107515386,
          0.0007680117322743672,
          -0.0019354248266610862,
          -0.0012252146207766905,
          -0.0007637959025464072,
          -0.005493513562008271,
          -0.00017274789499860307,
          0.011255250204934035,
          0.01124498397877109,
          -0.00023802155507075302,
          0.000436771301894047,
          0.0006423459743723135,
          0.0031191500700768022,
          -0.0022123915979667817,
          -0.01102642119238832,
          -0.00022642566875197227,
          -0.0005531058309903565,
          0.004101414403808143,
          -0.0017227706572187818,
          -0.0025993291305434047,
          0.0026478604529000947,
          -0.002985349149069771,
          -0.0007486041668195512,
          -0.002064400700795023,
          -0.0006164123680324427,
          0.0030320612962293557,
          0.001302292653330137,
          -0.024418772078416664,
          -0.028056270034918212
        ],
        [
          0.0004980082916842363,
          -0.00032798454869122155,
          -0.00037151578654403953,
          0.00006016280605735565,
          0.0014072349548260967,
          -0.00016156832681888463,
          0.02922053038233434,
          0.000902720248900746,
          0.0057460600820912755,
          0.0015310226748810828,
          -0.00008350613337434272,
          -0.0005617574479727785,
          -0.00024409735553373267,
          0.0010204010996430898,
          -0.00029642882887801955,
          -0.014406937122749585,
          0.0030392687095027364,
          -0.00018496641868223353,
          -0.0008336844465752722,
          -0.00008292905884729908,
          -0.0013461782452138546,
          -0.001369654571348772,
          -0.0006032698095320701,
          -0.00007763666784884873,
          0.00037516189680301986,
          0.000004473390845725389,
          0.000943211518407187,
          0.0034425953343938513,
          -0.038979638130030095,
          -0.023321098561621362
        ],
        [
          0.0027133209916001657,
          0.000541106884066147,
          0.000010113599375761029,
          0.00024214324817378963,
          0.0021223001902785916,
          -0.00003579986329195301,
          0.021015731433815233,
          0.001079013267176972,
          0.0054154857582669235,
          0.0006513249730846603,
          -0.00010155685146819626,
          -0.0037222574574637137,
          -0.00007643496946369398,
          0.004470858025172548,
          0.0003340285806276434,
          -0.027213703746033005,
          0.005901217995516857,
          -0.00008757207838866892,
          -0.003352907781161059,
          0.00009755289322546612,
          -0.0008496075450754493,
          -0.0003438966494527659,
          -0.0005851389207511335,
          0.00002023735905951615,
          0.00031423006042265275,
          0.000008934905751992442,
          0.0006497853088985816,
          0.0030311804223356314,
          -0.053579904186786015,
          -0.019627057541683042
        ],
        [
          0.001427849421131136,
          0.000320259655344977,
          -0.00010123642679343465,
          0.00029935701247304575,
          0.001693779472071981,
          -0.00021263173366983386,
          0.010267765819413306,
          0.0009350006879517016,
          0.006457350053328206,
          0.0012804011004211903,
          -0.00016637270672037496,
          -0.0026748953592697143,
          -0.0003152134408150913,
          0.0034506850570026272,
          -0.00008743146456315208,
          -0.013258763890533667,
          0.004118133785296663,
          -0.00011905424057885217,
          -0.004032168023747247,
          0.0001584053293686948,
          -0.00012406571243444417,
          0.00016864998954613892,
          -0.00030420379708382783,
          -0.000029883185410544453,
          0.00043306770347526234,
          -0.00007931487358588747,
          0.0001440469996053784,
          0.0037495589105963007,
          -0.03184903308591247,
          -0.014293194430985305
        ],
        [
          -0.00006727885982081434,
          -0.00015009139036125567,
          0.00007750457988773757,
          0.0005502907879539845,
          0.0018154150958114138,
          -0.00008058323243163119,
          0.0169300645834212,
          0.0010413418989805893,
          0.00475678546617627,
          -0.0004319130227072911,
          -0.00005192530824984655,
          -0.002719560242727625,
          -0.0002643165723119537,
          0.0009755349363127805,
          -0.00021015646470185574,
          -0.006964395047593284,
          0.002984578294003448,
          -0.000059540717398901944,
          -0.0008576456567510194,
          0.0003369127526562234,
          -0.00012266310536017115,
          0.00019436129738963691,
          -0.00010205340430296667,
          -0.0000012307389494584598,
          0.0009032172502705492,
          -0.00008125837888558046,
          -0.00002649139735735567,
          0.005639836004303202,
          -0.018018655691186762,
          -0.018868097854754875
        ],
        [
          0.00005710240120824319,
          0.000039466195156371286,
          0.00003425310461664404,
          -0.000016296715706513624,
          0.0003214981324849362,
          -0.000037371870381452335,
          0.0013764001550322993,
          0.00030448695724952246,
          0.007460089909881652,
          0.0005595803003058866,
          -0.000031710636010781956,
          -0.004227925035066434,
          -0.00001586829643316409,
          0.0020003487782715235,
          0.000046548986567087074,
          -0.010639223399047435,
          0.000669658450928135,
          -0.000051429588146975646,
          -0.00019239149675576587,
          -0.00005269875724601772,
          -0.00003345939230490352,
          0.00016354959390731965,
          -0.000037731605624510165,
          -0.00008099117611347489,
          0.00003659394796137297,
          -0.00008338342902679689,
          -0.00005450293378324442,
          0.0017455816790649063,
          -0.012198345413383563,
          -0.0018406857988965927
        ],
        [
          0.00011258292454873846,
          0.00012662490149647964,
          0.000016747358817298997,
          0.000022619159167906084,
          0.000007703769393982345,
          0.00004726390256308985,
          0.00006973600840894075,
          0.00010346516530777029,
          0.0035548454680143413,
          0.0003651015945866227,
          0.0000021849345464682968,
          -0.0016218080384552485,
          0.00000387165596654521,
          0.0004655035919006471,
          0.0000556557542358214,
          -0.0037717981981198636,
          0.00007506463711258883,
          -0.000021992357034174475,
          -0.000048266983404945436,
          0.000008584442013697817,
          0.000047000805223772355,
          0.000123215359736867,
          0.000030621635538504334,
          -0.0000017148554406889076,
          0.00003870649933158822,
          0.00001806121016275427,
          0.000049793856991457714,
          0.0002173569384942074,
          -0.0066813080146137455,
          -0.00020514348000758256
        ],
        [
          -0.000014151430579752477,
          0.000030446797775806367,
          -0.000014882411816000496,
          -0.00003398634507724696,
          0.000030127200308206946,
          0.000036456456433180515,
          -0.000008379739757131732,
          0.000040565267950452586,
          0.000009594095771043177,
          0.000026804074448797932,
          -0.000046341594061871814,
          -0.0000036430271605892405,
          0.000009689985553133295,
          0.00002541632873221995,
          0.00000418178827568092,
          0.00004256052557904671,
          -0.00001532293266989091,
          0.000002968325636272584,
          0.00003861682701520401,
          -0.00004389382103050656,
          0.00003170358223494987,
          0.000015501552501435722,
          0.000017276142292478136,
          -0.000021420118084809216,
          0.000005141739930293077,
          0.0000164691618721837,
          -0.000007296117659470846,
          0.000007170883804918482,
          0.000046424115161259416,
          0.00004782366300615164
        ],
        [
          0.000018527646542398223,
          0.000021912144734879056,
          -0.0000015431711692700079,
          0.00002438650701541285,
          0.000041413619015281285,
          -0.000023514567704762258,
          0.0000043959395277985755,
          0.00003757063339648734,
          -0.000033684047932501147,
          -0.00002849110369662795,
          0.00002200370019866127,
          0.00002792585916111976,
          -0.000046541709082618835,
          -0.00004428710038637929,
          0.0000022773446366196824,
          -0.00001397043656171868,
          -0.00004671608426135101,
          -0.00004806731563753566,
          -0.000005191999758261767,
          0.00004843050901483002,
          0.0000243109728882708,
          -0.00003957855257122773,
          0.000039988735448953674,
          -0.000003264098831572393,
          3.003486081619489e-7,
          -0.000023903051499178374,
          -0.000011448220874608884,
          -0.000018393213274534824,
          0.000017428071739625484,
          0.00001167415834911696
        ],
        [
          -0.0000033582893155796212,
          0.00003528080213947038,
          0.000028843944002028743,
          0.00002667693904595363,
          -0.000031232318394491275,
          0.00003833755359045612,
          -0.000045333220350321724,
          0.00002203129910350854,
          -0.0000307784496513094,
          0.00004572601897455397,
          0.00000687719982258943,
          -0.000035083648435161254,
          -0.00001347462040330345,
          -0.00004706260579771395,
          -0.000012522232255098142,
          -0.00002596169235222301,
          -0.00004378842797046818,
          0.000014056236370483078,
          -0.00001972496651061981,
          -1.545838138263589e-7,
          0.00004724889746551808,
          -0.000025366071215844756,
          -0.00003598861823647694,
          -0.00003210953245819277,
          -0.000024204059871514838,
          0.000014319500859216272,
          0.000018837050655692768,
          0.000022463842344686212,
          -0.000030558130494771206,
          0.00004255855552471799
        ],
        [
          -0.0000036370435951061484,
          -0.00004111589728904212,
          -0.000034644648094879394,
          -0.000005344101617690544,
          0.00002752603978909016,
          -0.00002458744099553598,
          -0.000032217983389827374,
          0.000041134351760815926,
          0.00003283008415086508,
          0.000040833697738447986,
          0.00002153720313831604,
          0.00004449715233710243,
          0.000001314899585600382,
          0.00004433600321429954,
          0.000005227591661684605,
          0.000018008073786284307,
          0.000046534023636315444,
          0.0000339909977390956,
          -0.00002004738540682618,
          0.000023943068407777646,
          0.000004039639034085041,
          0.000018431122237802898,
          0.000005043514518396819,
          0.000011723777547933057,
          -0.000030509529865351782,
          -0.000049799195705097366,
          -0.000017344994703660598,
          0.000041784175947547505,
          0.000011193229527385596,
          -0.00004803425728600046
        ],
        [
          -0.000018823732883858347,
          -0.000023918532952111947,
          -0.000013197656569966277,
          -0.000028733787941200338,
          -0.000024532232738155433,
          0.0000028846494914946507,
          -0.00003184692970674135,
          -0.00004448239024588789,
          -0.000013313585627099456,
          0.000014711927920047897,
          0.00003207314211619894,
          0.000035735007225888917,
          -0.00003479965703854062,
          0.000009408705193448719,
          0.00003914424603761508,
          0.0000060194367214305714,
          0.00004432544233938949,
          0.000012218271258206048,
          -0.000004791782911731035,
          -0.00003316637538872125,
          0.00004954740584161259,
          0.00003285685786141677,
          0.00002171552914025563,
          -0.0000012110576302710952,
          -0.000035996259345808256,
          -0.000006532988675182528,
          -0.0000381694516708043,
          -0.00004248952408272082,
          -0.0000390852679261521,
          -0.000004287141663848759
        ],
        [
          0.00004634745830281197,
          -0.000006554008433766989,
          0.000013372018730608403,
          0.000018756335835496407,
          0.00001438513653922855,
          0.000033612606062347304,
          -0.00003798665496906082,
          -0.00001720653049439418,
          -0.000023725592417483576,
          -0.000002892060198049018,
          0.000014461965806239618,
          -0.000003736976722596563,
          0.000014241879764952015,
          -0.00001132927309295726,
          -0.0000040917074750441264,
          -0.000004581124929797387,
          -0.0000266449782047508,
          0.000014119373804924363,
          0.0000010978933146107872,
          0.00003374416154300641,
          -0.00002420989169459811,
          -0.000010081470648930812,
          0.000022527201363062187,
          0.000043733253350186875,
          -0.000034840352061787416,
          0.0000481002950155744,
          -0.000044033851350545274,
          -0.000010841803981708997,
          -0.000025376506687783594,
          -0.0000013332825325262033
        ],
        [
          -0.00001682671416343638,
          -0.000038230194057735604,
          -0.00003941264627526581,
          0.000008299248506587576,
          0.00003339032096876476,
          -0.00001976029149231966,
          -0.000028526736631808927,
          0.0000026543627762034895,
          -0.00004120471874116993,
          0.0000427358014179095,
          -0.000006846939734694486,
          -0.00004253176072014058,
          0.00005194665543317865,
          0.000054428139086931745,
          0.00003916419772225118,
          7.230987910130843e-7,
          -0.00003272133896066735,
          0.00004597749192270473,
          2.496793725955223e-7,
          -0.00004885585970806969,
          0.000004374475289562772,
          -0.00001599279268333882,
          0.00001771395551096567,
          -0.000013640337956712035,
          0.00004353034581861589,
          0.00004518365892755384,
          -0.000013734981663578273,
          -0.000008580435116558966,
          0.000013644550682045527,
          -9.885811896800288e-7
        ],
        [
          0.0001837574585782805,
          0.000022481409539849336,
          0.0008304583344399182,
          0.00003247047979955888,
          0.000023639109170697488,
          0.000020672186942005002,
          -0.0017733056457892625,
          0.00006050811823858285,
          0.00008209161290930782,
          0.00002111244333026403,
          0.00002150023970705806,
          -0.00008282113132366266,
          0.00004646164423791442,
          0.00007489253138526678,
          0.00005195816823893614,
          -0.0011145694543767998,
          0.00006713086873773739,
          0.00011463835532531778,
          -0.000010807069875702472,
          -0.000017546549589739896,
          -0.0002230493335590622,
          -0.00023993078496765635,
          0.000015024864682859802,
          -0.000012598076098060535,
          -0.00003357518949209727,
          0.0000447965454361144,
          -0.00018239746678464397,
          0.000021250459634028658,
          -0.00003761944710630017,
          -0.000015458737177926053
        ],
        [
          0.0000289443002682348,
          0.00004878491817569206,
          0.00035671010381925326,
          -0.00004142592506460442,
          0.00008418153256680461,
          0.0000062243282404101094,
          -0.0006390327167860321,
          0.00004983815230412405,
          0.00009834264742879333,
          0.000809063841009069,
          0.00002360519334769842,
          0.00004267424794206059,
          -0.00005391628754760187,
          0.0001139779971045164,
          0.00003792383256125393,
          -0.00050018282269976,
          0.0002646005775640425,
          -0.0000206182248961556,
          -0.00005146959618547743,
          -8.940265698633935e-7,
          -0.00002566874542164055,
          -0.00006615816617371201,
          0.0003610586009455724,
          3.8771814884036684e-7,
          -0.000006575769285680871,
          -0.000033033061295431194,
          -0.00000724663558484012,
          0.000110518599201941,
          -0.000931564256158582,
          -0.00019926439056172337
        ],
        [
          0.00006339331474190765,
          0.00010680799723292224,
          0.00015232310471250158,
          0.000027111902293031356,
          0.000053453214575028194,
          0.00008078274308145353,
          0.00015016725170404252,
          0.0000649908974715488,
          0.00009633079142538644,
          0.00008454548067733937,
          0.0000265509656879331,
          0.00003574399236476988,
          0.000035041437561226136,
          0.00010513882329470865,
          0.00008627405093038188,
          -0.001793082567894648,
          0.000002383528572755293,
          0.000009745993459815705,
          0.00004211961399039039,
          0.00006690311714916048,
          0.000023862807352713895,
          0.00007101774912781367,
          -0.00044415299934680075,
          0.00002839508941611966,
          0.000019401425160772768,
          0.000011282582725159247,
          0.000049731428150809886,
          0.00009463103324902113,
          -0.002241441817945661,
          -0.000050676617933406085
        ],
        [
          0.0021076520630171442,
          0.0034743592114649517,
          0.0033628997297214932,
          0.000063131600110579,
          0.00005786714942452955,
          -0.00013402697519001878,
          0.007112829477544793,
          0.0002790233133688751,
          0.006351663683648369,
          0.00034966224534695113,
          0.00015785877149925758,
          -0.00045152968002402683,
          0.00023865858836211932,
          0.005126657738532641,
          0.00011097755611548105,
          -0.03871354032300335,
          0.00012609487612516023,
          0.000020635075861647633,
          -0.0012876635098946745,
          0.00007947869697383754,
          -0.0003753414112087767,
          0.004968813195557556,
          -0.016443651032241144,
          0.00008647677423657159,
          0.00009569958709904918,
          0.00011974946708939721,
          0.0000833822152042485,
          0.00021548504937706636,
          -0.058013643494199636,
          -0.0005546991675992222
        ],
        [
          0.0012485150030625758,
          0.010350745724039694,
          0.006639334764895177,
          -0.0009400218056365229,
          -0.0011304772059739182,
          -0.0016377538232097387,
          0.013786377649530094,
          -0.00019134659351592863,
          0.03326093842033412,
          0.0009713329208142189,
          -0.0007847713212509334,
          -0.0008147375763282444,
          -0.0006548434827522546,
          0.01428533998140031,
          -0.0010226083501636409,
          -0.10844312855840776,
          -0.001246828119642083,
          -0.0007205949776236866,
          -0.009869501211898085,
          -0.0008128079181328701,
          0.0017897485361934643,
          0.008282707969692391,
          -0.023361625857958434,
          -0.0008020336727503041,
          -0.0010624539226267412,
          -0.0007448643365896298,
          -0.0022741150770520394,
          -0.0011503327844690772,
          -0.16640922463213878,
          -0.004087585426638082
        ],
        [
          -0.0008970985196251411,
          0.011357936211831707,
          -0.007841135156465255,
          -0.004182079596554646,
          -0.005285603620471846,
          -0.009308561005249998,
          0.03565936652501595,
          -0.0030225521055429667,
          0.057381066236592615,
          0.008044894215683773,
          -0.003813654151542544,
          0.0020460601143289657,
          -0.001929863048855065,
          0.014857109141472381,
          -0.0027797976897807742,
          -0.11913721183556697,
          -0.00440298264578725,
          -0.005830403067707708,
          -0.025524266414923193,
          -0.003526311359626718,
          -0.011753726679706054,
          0.007134225208960136,
          -0.04230657011413322,
          -0.0036203261285517835,
          -0.008558460346928469,
          -0.004504520275476259,
          -0.004932092450850742,
          -0.006999439481988144,
          -0.20490825381081587,
          0.00960312095164004
        ],
        [
          -0.0077959356554749715,
          0.002986800940934238,
          -0.03536322971939891,
          -0.006439683275383119,
          -0.00850932892926109,
          -0.018520660410328998,
          0.07277822494656305,
          -0.0047718358047630525,
          0.0841946822280568,
          0.017809447293447987,
          -0.006345247949676914,
          -0.0011889490643721464,
          -0.0031317154181150783,
          0.015212650334448217,
          -0.00393254396483116,
          -0.10176858097676972,
          -0.0065154279057867085,
          -0.011822494746334537,
          -0.0422980885530168,
          -0.005311668286332736,
          -0.02947179121012438,
          0.011503813136560336,
          -0.06918520398701435,
          -0.0058421420202678705,
          -0.014691774336915892,
          -0.007431044042127157,
          -0.008706545810828921,
          -0.013020328279853409,
          -0.15300539219000023,
          0.06361829571536734
        ],
        [
          -0.012011218365116476,
          0.00406373900814916,
          -0.04822223394728636,
          -0.011065101555960796,
          -0.01223864281860478,
          -0.03365783802927345,
          0.10648138851982625,
          -0.005487589716811773,
          0.14922683506330225,
          0.027581380019254687,
          -0.008275735774902097,
          -0.02669436747414413,
          -0.0060606907166924455,
          0.01881772351924291,
          -0.004121842246238686,
          -0.16781435346012963,
          -0.00753588248956461,
          -0.019463885710751163,
          -0.04910701282861,
          -0.00956126958200876,
          -0.02671027601745237,
          0.013944917750618747,
          -0.0659430503069534,
          -0.009043967027120762,
          -0.016643488473133,
          -0.010135570582251405,
          -0.010773668526246668,
          -0.017131460962435605,
          -0.24083538703756352,
          -0.0010080832397134677
        ],
        [
          -0.014219504571441697,
          -0.0027143329295418036,
          -0.04956410876258761,
          -0.015335735464322708,
          -0.02319709486894909,
          -0.041354149015932505,
          0.04942521654488844,
          -0.00967117855197975,
          0.1821718445666788,
          0.030783532040421568,
          -0.00855754140540977,
          -0.030775843698299825,
          -0.001465013989135954,
          0.019241196686330227,
          -0.006472219348707799,
          -0.1965205336613831,
          -0.021278441149123157,
          -0.02809758983210819,
          -0.008027322424839334,
          -0.0124826889086515,
          -0.04952444755139357,
          0.018740562495480027,
          -0.09867601127578958,
          -0.010152519243065558,
          -0.022713404444500877,
          -0.011833045893860684,
          -0.01357074942343109,
          -0.023723193250125795,
          -0.260777872874892,
          0.021853302096260085
        ],
        [
          -0.005555555496782081,
          0.001953755715767804,
          -0.037835070359841926,
          -0.013131757388832333,
          -0.02624261723222953,
          -0.04890458350662286,
          0.05035268791954897,
          -0.00895339156598324,
          0.21962893465393263,
          0.03978911627581042,
          -0.00223034828514085,
          -0.02851393052520565,
          0.005675193148961245,
          0.02942919836822632,
          -0.007661262534094905,
          -0.2545545323156674,
          -0.02837609739669719,
          -0.02165681356145475,
          -0.0029940839735923034,
          -0.011071163996288064,
          -0.07213525651311559,
          0.021406807867050504,
          -0.13177101183685372,
          -0.007635339429629025,
          -0.019704388038630574,
          -0.006845701216512789,
          -0.008969301041523221,
          -0.01634999459970014,
          -0.3281053440467074,
          0.0379960512348825
        ],
        [
          -0.0022285934692999857,
          0.004109529522712748,
          -0.02030858455860197,
          -0.017418367552622913,
          -0.03320134825840289,
          -0.04991501037118072,
          0.04201239405212653,
          -0.009204590118357338,
          0.24878799028945947,
          0.052809386130987006,
          0.0005475620469647073,
          -0.01758393262606291,
          0.00674297908715027,
          0.027654876333245232,
          0.0023008496829085806,
          -0.22611423589818297,
          -0.032124716382460554,
          -0.016897517579813916,
          0.0016019229932945722,
          -0.015329790763242486,
          -0.07194945881802738,
          0.02393706011148286,
          -0.11425189016968221,
          -0.01000709110106277,
          -0.02305372643360083,
          -0.0062918141744912615,
          -0.002216683609294021,
          -0.013389355354526357,
          -0.27229956762902996,
          0.0019312397673228036
        ],
        [
          0.0008878367395532051,
          0.0023062828340937973,
          -0.012297626508622818,
          -0.01162581595543751,
          -0.022128324386260192,
          -0.03763918512566209,
          0.056274925817030676,
          0.0025860403672165137,
          0.21810807111271005,
          0.032290051200501796,
          0.018824162132644155,
          -0.04170482996173177,
          0.015928391182988885,
          0.026220529394888635,
          -0.0026827684544807966,
          -0.17590535739896382,
          -0.019995206251251618,
          -0.0004944352369896322,
          0.016723820216923417,
          -0.01303949472834663,
          -0.08386009385158838,
          0.03281884661455198,
          -0.10683106065796111,
          -0.0059354598505713604,
          -0.00548012381383358,
          0.007191098509030418,
          0.0028891558149865466,
          0.013101304764014499,
          -0.20601029243831298,
          -0.12241977523931735
        ],
        [
          0.008594807513922552,
          -0.0027110562400709617,
          -0.01955819748885232,
          -0.0043930303711032966,
          -0.007905597981841482,
          -0.025326580045857947,
          0.02903262664739608,
          0.012393243911448488,
          0.1686797287081014,
          0.030885973790449227,
          0.029669508819904978,
          -0.04655929763117326,
          0.019673537009041963,
          0.04160091670656575,
          -0.005046683801355045,
          -0.15828894898118162,
          -0.004278247110816653,
          0.01166279322087413,
          0.020919601699305606,
          -0.00763440249543248,
          -0.11046479940981396,
          0.04612525285171428,
          -0.14890638440011378,
          0.0008910100544047211,
          0.01608914326362034,
          0.016506052668131377,
          0.005831591224226986,
          0.03880972942287099,
          -0.21268869022590503,
          -0.07755151668227744
        ],
        [
          0.008882315473162535,
          -0.009321203670207936,
          -0.020270823753500426,
          -0.018611047650686913,
          -0.01930766414761785,
          -0.015203946597020703,
          -0.032916910717795414,
          0.00151909417603036,
          0.18233970876424813,
          0.039059275825679814,
          0.014084024983692161,
          -0.03325332026192948,
          0.012936793540519206,
          0.04418485527521809,
          -0.011716560589777677,
          -0.1519938201948839,
          -0.008677113935552889,
          0.018064230737544703,
          0.010697051366745534,
          -0.0190563854187447,
          -0.10241978274642854,
          0.03752799618647868,
          -0.16127033666513763,
          -0.007867477009291583,
          -0.004390980793097831,
          0.003319335916181241,
          0.001899066382637689,
          0.028292345536009463,
          -0.2234261740473074,
          -0.010175330445779963
        ],
        [
          0.008659696128463816,
          -0.008350543399669313,
          -0.011492037237669575,
          -0.024734831279647897,
          -0.020946580688501058,
          -0.019713978745860943,
          0.012565080026463421,
          -0.007185116912496686,
          0.1715669232190918,
          0.06545016146066668,
          -0.009813683851651923,
          0.00817428210257783,
          -0.0053085602054448585,
          0.026790021062915045,
          -0.015348732580222969,
          -0.07162997463311471,
          -0.004426427101939454,
          -0.005160928651723213,
          -0.017642436949946782,
          -0.02288112599769103,
          -0.08059949003137086,
          0.0402390431818514,
          -0.14358536251985055,
          -0.015532079739143041,
          -0.02468854438606656,
          -0.013582113307535566,
          -0.0005980341236650092,
          0.01591907608391496,
          -0.1963590081653487,
          -0.07460230541670072
        ],
        [
          -0.0009439566731501432,
          -0.0051029565642095286,
          -0.010975772250614454,
          -0.015328504686450396,
          -0.005752502433896268,
          -0.010630208331229487,
          0.11350231895002522,
          -0.0022988888328015606,
          0.09691820864164709,
          0.06199497500273395,
          -0.01123960646743751,
          0.0028130143781517312,
          -0.010995331992947707,
          0.013850042642220492,
          -0.007691057081861165,
          -0.05091298094563964,
          0.011109539703054097,
          0.010379072050232174,
          -0.02779861574839759,
          -0.014938597180859676,
          -0.06044036761207186,
          0.02230851301563443,
          -0.1267413980235965,
          -0.013346642396119764,
          -0.01582408631114192,
          -0.012020514770586951,
          -0.0012355436260808835,
          0.025191571703451023,
          -0.16407304315903531,
          -0.1290506225100419
        ],
        [
          -0.0015467321110720178,
          -0.002857409805727004,
          -0.00883512681701015,
          -0.009976356094054124,
          0.005142565232842804,
          -0.0073812591348368164,
          0.19406646496700808,
          0.001971185232850897,
          0.06097905618252503,
          0.046761929750139465,
          -0.010276222685034595,
          0.010437861434991987,
          -0.013989676742003033,
          0.0075418773031688605,
          -0.0032741348022282068,
          -0.03931389049189964,
          0.018469645906601165,
          0.011083030749305629,
          -0.03378835632539216,
          -0.01112708257753489,
          -0.0479598699304438,
          0.010356417112257989,
          -0.09874737333403139,
          -0.012291429402564925,
          -0.007523624401351132,
          -0.011263155768690162,
          -0.0042205198776128095,
          0.023488498256385094,
          -0.1381397634999961,
          -0.11742086631904615
        ],
        [
          -0.0027817497521261704,
          -0.001891827723858949,
          -0.005401302461095495,
          -0.010778293278246025,
          -0.0032097341778291122,
          -0.0051573122704680185,
          0.12627749453973122,
          -0.0020084774540578268,
          0.05758792858971347,
          0.0405940999049141,
          -0.00977152184307953,
          0.016503799474190464,
          -0.01202545167402326,
          0.004351023025181745,
          -0.0027854387457708126,
          -0.01645299731039285,
          0.008206840606823081,
          0.012528216095477161,
          -0.020498008042484105,
          -0.011248349635278765,
          -0.03431599058675034,
          0.004812538555143945,
          -0.0813740030673244,
          -0.010865987143340142,
          -0.010257296559576759,
          -0.010768978082692329,
          -0.0069403884436467405,
          0.013062363154529369,
          -0.12599973545729518,
          -0.04986943668622113
        ],
        [
          -0.0018710379695500397,
          -0.0016361699294955303,
          -0.0039453197899187754,
          -0.0020782424891011082,
          0.0013951682218777952,
          -0.0055301869121257,
          0.1340170275568762,
          0.0008237635302791675,
          0.0646566756234629,
          0.011546105442653895,
          -0.003923868791810092,
          0.0026241643689747505,
          -0.005670380026535881,
          0.004996673192433681,
          -0.0024669175842563173,
          -0.008455609601336988,
          0.009471930832463445,
          0.005738589459294175,
          -0.01687536849194612,
          -0.0028618849402472254,
          -0.007250232593039447,
          -0.0011637442545020791,
          -0.026823335956184587,
          -0.00419202471110437,
          -0.0014189865196286842,
          -0.004176471257198342,
          -0.007612725367549969,
          0.019970813781712775,
          -0.10350768566772117,
          -0.0667324606176002
        ],
        [
          -0.001231143594054236,
          -0.0006981840872396218,
          -0.0018562617930552802,
          -0.0002938891152889269,
          0.0026587162341448318,
          -0.0013048698581189832,
          0.08117860686508674,
          0.0007385820628149142,
          0.04506513712482753,
          -0.006269170166650158,
          -0.0013261694792788756,
          -0.005813612975164888,
          -0.0026632998993786463,
          0.004126330523596933,
          -0.001306401919703047,
          -0.017473480895681723,
          0.007482419639012356,
          0.004192191253317297,
          -0.00945683962358267,
          -0.0007793266846431495,
          0.008031346347912164,
          0.0007664865883680758,
          -0.003996015534781882,
          -0.001433751890484411,
          0.0016025628683243697,
          -0.0012543998800945838,
          -0.009517897241660092,
          0.019292582738444298,
          -0.054877461744361616,
          -0.07886009878033798
        ],
        [
          0.00009658981788845747,
          0.0005003381060587335,
          0.0003161836831581125,
          0.0006458657127539201,
          0.00013527746240834344,
          0.0005028284795653603,
          0.03388362239481904,
          0.00015378947324004016,
          0.01674841435960068,
          -0.003618490625944412,
          -0.0004285542114743014,
          -0.0023645367173420026,
          -0.0010944370682958763,
          0.0031811486723645637,
          -0.000007931377584142464,
          -0.01784583167147379,
          0.0017280703596931387,
          0.002839398513182339,
          -0.002777490834703513,
          0.00014840426639553346,
          0.0027291946601198085,
          0.002827877918727013,
          -0.0025768341638296053,
          -0.00042458540815567625,
          0.00150812825687372,
          -0.0004527684529179544,
          -0.006703226262350023,
          0.0089255152305074,
          -0.0296401563373698,
          -0.035893233898253454
        ],
        [
          0.00029881174263203135,
          0.0002036588043464429,
          0.00001175781717645117,
          0.00016985871253091816,
          -0.0008880737628357333,
          -0.00030154154595646743,
          0.011391254362456357,
          -0.0003825948636013857,
          0.003998683457701864,
          -0.0015104703793276577,
          -0.00016277344703028183,
          0.00009368275999582458,
          -0.000050452578396672514,
          0.001650053971501867,
          -0.00006575146355598945,
          -0.007646579915896026,
          -0.00018764506221402114,
          -0.00028113071572108037,
          -0.00011904194985868861,
          0.00005292845610635469,
          -0.00039872847155692035,
          0.0014522359544751747,
          -0.001387817612211254,
          -0.00013763126156624765,
          0.00013641487279861855,
          -0.00018638380420680776,
          -0.004187737557262927,
          -0.00043295483970118374,
          -0.015414888185742472,
          0.007545314548425262
        ],
        [
          -0.00002512683299340941,
          0.000030503806534798873,
          0.00007271130894482628,
          -0.00012033631522901427,
          -0.0005990700342469223,
          -0.00003301929286723784,
          -0.0008704927341020511,
          -0.00020241750377230944,
          0.00047130212982550315,
          0.0001339175180738589,
          -2.0774320879116622e-7,
          0.00007829138834737809,
          0.00018711160889568805,
          0.0003629258753143158,
          0.00000770177632894876,
          0.00007044270367092486,
          -0.0008116180271065711,
          -0.00007681253574439951,
          0.0005514102626086743,
          -0.000036996830260225916,
          -0.000014268007575065115,
          0.00036336266452370895,
          -0.00001954726895094646,
          0.000026163134018215698,
          -0.0003281490665664129,
          -0.000021796800473458554,
          -0.0007697259706562795,
          -0.0022608410799507513,
          -0.0006834717301882195,
          0.013308098859137465
        ],
        [
          0.000008637528992728738,
          -0.000027109043251886343,
          -0.00003233122221456675,
          5.61816563005868e-7,
          0.000039145079650382344,
          0.000044903213889819,
          -0.000016570517266239636,
          0.000046225491966760514,
          -0.000012610268757654808,
          -0.00003385183211805389,
          -0.000016154251980245427,
          -0.000022227356167638245,
          -0.000003551025347230885,
          0.000038637790973082506,
          -0.000016120424739620765,
          0.00002511878554350555,
          0.00003643524999223948,
          0.000017996379132450825,
          -0.000007948266298069307,
          -0.000009213141450995876,
          0.00003851213312488775,
          0.000019161131788935147,
          0.0000012571312803245415,
          0.00004639219962866816,
          0.000033299370147029815,
          0.000011073634011997391,
          0.00003585595575506171,
          -0.00002688933030106757,
          0.00003468739055961963,
          -0.00004107723286386244
        ],
        [
          0.0000023746762452034887,
          -0.000018443623183092426,
          -0.000006728402147815093,
          -0.00004062863392988325,
          -0.000008022832018113779,
          0.000046215087676692137,
          0.000011780090858907989,
          -0.000023474320931278703,
          0.000034037364038017734,
          -0.0000395780616244898,
          0.000010495344890473301,
          -0.000024161139021882037,
          -0.00003241403149464428,
          -0.000010000824496630489,
          -0.00004089655446899563,
          -0.000025575681790845817,
          -6.274778547987303e-7,
          0.000019045876718105403,
          -0.0000033902320095114293,
          -0.000028123950978074162,
          0.000016930531152538374,
          0.00003176628658642016,
          -0.00001780130675028022,
          0.000009231377608062586,
          -0.0000033731019791319428,
          0.000014017191674561258,
          -0.000022864060765905457,
          -0.00003531455085363613,
          0.000008041381299381944,
          0.000017107917125075977
        ],
        [
          -0.00000969174688537826,
          -0.000030510628357415404,
          0.000047333701698574824,
          0.000012944131061411324,
          -0.000013842594408243047,
          -0.00001451198275133454,
          -0.0000324670652547737,
          -0.000019959327817877813,
          -0.00002679887584523577,
          -0.000004488324979171643,
          -0.000011857805481958649,
          0.00001409228673252989,
          0.000013885526649253421,
          -0.00004299476042188646,
          -0.00003753923561800965,
          -0.000013340803058188434,
          -0.00004443120600208175,
          0.000043801196092826936,
          -0.000015372971875096942,
          -0.000005093731244920785,
          -0.00004023886683026656,
          0.000023353824846315828,
          -0.000031874197101095516,
          0.00003354000153254395,
          -0.000031306066160124256,
          -0.00000827328484338139,
          0.00001123511613303494,
          -0.000003157561925061203,
          -0.000023154846599042588,
          0.00004977477547943783
        ],
        [
          -0.00003489561539612811,
          -0.00003235597662025382,
          0.000018126519299130673,
          -0.000021863522599677255,
          0.00003433658115213916,
          -0.00003168791900387098,
          -0.000012291018964723776,
          0.00004271822735645558,
          -0.0000026379948052100977,
          0.000001790607764596519,
          0.00001465032001501363,
          -0.00002975477481439317,
          -0.00002329715704374815,
          0.00003996461116605479,
          0.000012928629063473584,
          0.000021059619763104287,
          -5.848835015147991e-7,
          0.000029402780540860784,
          -0.000013028706080510366,
          0.000009569168725263322,
          -0.000032028509264016725,
          0.0000026769422293999367,
          0.00003812343223313619,
          -0.000015076586690414428,
          0.000015679443667619797,
          -0.00004173028597449708,
          0.000040983823961047785,
          0.000043589926620175554,
          -8.609476164622487e-7,
          -0.000048647981082721435
        ],
        [
          0.000014868346788520965,
          -0.000002338678632283149,
          0.00011400566712841621,
          0.0001398168956673234,
          0.00007405237686094455,
          0.0005685964010568975,
          -0.0033865725084209885,
          0.00010466946375757726,
          -0.0024963962319161075,
          0.0003277872883615273,
          0.00031289698361923826,
          -0.00011130294195129417,
          0.00017204854785462126,
          0.00002392128590609203,
          0.000048195444357950394,
          -0.000008039759303604603,
          0.000059216416569087944,
          0.00005880843576471736,
          0.0004875249652717536,
          0.00014546935396560237,
          0.000042811070221309325,
          0.000008568497626066306,
          0.000004895959443317138,
          0.00013447687522194222,
          0.00011820250094233745,
          0.000262838601775427,
          0.00018003551778021404,
          -0.00003208443269752468,
          -0.000007378557030201892,
          0.0007709556300408279
        ],
        [
          0.0007635329899688154,
          0.00033379087709720025,
          0.0018507661970754128,
          0.00008061014600610945,
          0.00016388775230462383,
          0.0001553477320190337,
          -0.004300701701273495,
          0.00012404390526076794,
          0.0016485991736240719,
          -0.000013129707130041512,
          0.00018380363657407705,
          0.00031359006672949583,
          0.00018647086625881646,
          0.00039578553000066283,
          0.0003767516447710682,
          -0.002985269370344245,
          0.00044760222116448534,
          0.0005496559462988726,
          0.00028451659161044353,
          0.00011141615713935203,
          -0.0017572911141532609,
          -0.00034195942041633317,
          -0.0047026448257097625,
          0.00012019245127104731,
          0.00013524791418782024,
          0.00020230477665838219,
          -0.00018356551732209587,
          0.00024393787720946935,
          -0.0009016278801502009,
          0.0004601394465127275
        ],
        [
          0.0016012955576972287,
          0.000513157007854499,
          0.0012427967460327794,
          0.000052522705482981044,
          0.00029682557722006153,
          0.0004761308948839878,
          0.010191263828937109,
          0.00034202557123316123,
          0.00038471052158945725,
          -0.00004927789303389977,
          0.00013102189040570085,
          -0.00010946402762940246,
          0.0003557016095229022,
          0.0010682843335722823,
          0.000350797336177689,
          -0.00014160354240518107,
          0.000527809432568685,
          0.0005522586369194668,
          0.0005191765054773258,
          0.00007089815700389393,
          -0.002873963927551794,
          0.00182671649109838,
          -0.010785957563432869,
          0.00007848780864845719,
          0.0001355825497102167,
          0.0001288492670048973,
          0.0011286195155055245,
          0.00031739765656844146,
          0.0003851813013715775,
          0.0008930901526922976
        ],
        [
          -0.00011963709598924428,
          -0.0003262933856977689,
          0.022535098934795637,
          -0.0003333445224962169,
          -0.0006325892775760521,
          0.018434316207590597,
          0.011633455696197347,
          -0.0003058494973189192,
          0.003580697146390985,
          -0.0007248483921739801,
          -0.000917290503822633,
          -0.003132998979994377,
          -0.000410060412344837,
          0.001987468967799467,
          -0.001951232239870274,
          -0.007910696591683903,
          -0.0006938082270513977,
          -0.0031237184990496277,
          0.03120628537433544,
          -0.00029094111304734787,
          -0.026352308724040353,
          0.003649077763434459,
          -0.0432412597620457,
          -0.00017028757388032142,
          -0.0010274592247642297,
          -0.00041463249812770966,
          -0.002424012757009082,
          -0.007742887256625627,
          -0.015673006056151326,
          0.007077851953625017
        ],
        [
          0.0021049174431096856,
          0.0029329845393306093,
          0.012999586074161119,
          -0.0012275355564197177,
          -0.0014074631357008335,
          -0.003365373193518168,
          0.031258296344115526,
          -0.000395358322139488,
          0.01866207385641475,
          0.0005538166176533458,
          -0.0007504138282911796,
          -0.010641360826273968,
          0.0018514146908021896,
          0.015353671883214653,
          -0.0028961577931215852,
          -0.07168239967345996,
          -0.001069130403138962,
          -0.009058959462288723,
          0.013747045592075888,
          -0.001134869319925686,
          -0.027689871874718466,
          0.01564795856803914,
          -0.07884352678350857,
          -0.0008500049692439054,
          -0.0018778445893077784,
          -0.0008900118513737682,
          -0.0028033512375965595,
          -0.005416508625382307,
          -0.11010733959237845,
          0.015041272030062648
        ],
        [
          -0.001894481517044097,
          0.00403568400172203,
          0.009278480863580626,
          -0.0058303739001690615,
          -0.006714427850994679,
          -0.017613057363589864,
          0.017766474055287383,
          -0.003304819196799387,
          0.06210430246213295,
          0.009407212736707813,
          -0.003751602121445027,
          -0.003174534127867175,
          0.002388289052629225,
          0.022922743767990174,
          -0.004880290175835592,
          -0.1459740514187978,
          -0.005956422010259722,
          -0.015375449885215607,
          0.011303477173554673,
          -0.00517070613167886,
          -0.052610979429842525,
          0.022994914293914627,
          -0.10504271649642391,
          -0.0047479909527016265,
          -0.009361607706132093,
          -0.0047122313268288755,
          -0.008127019693888474,
          -0.018124128718128234,
          -0.23328741051872848,
          0.03920588681117341
        ],
        [
          -0.010133446054888392,
          -0.005364613902381065,
          -0.04330896958221135,
          -0.014735090999623812,
          -0.018202941947965793,
          -0.05009145444869758,
          -0.014588489515781383,
          -0.010198567883240287,
          0.13138157138943177,
          0.033775521051518875,
          -0.01081573670313977,
          0.0201304173682337,
          0.004793242241617754,
          0.034694358918068754,
          -0.008920917482786736,
          -0.16904834244570166,
          -0.016684349226497013,
          -0.02512547700741319,
          -0.01990505805869364,
          -0.012506815179630431,
          -0.07216099835355826,
          0.030635101542584097,
          -0.11789034394447664,
          -0.011416425255979986,
          -0.026967907984940642,
          -0.013127541399217327,
          -0.020767018654129145,
          -0.03659736480359485,
          -0.3109555787443207,
          0.13343041516848528
        ],
        [
          -0.017406464203959512,
          0.004335650660449824,
          -0.07968412607319887,
          -0.034891298836494916,
          -0.04359265340628924,
          -0.08713436836145241,
          0.07023172215389661,
          -0.02692626980313116,
          0.20753073816818457,
          0.06409042480681652,
          -0.023694611053473976,
          0.0330262698366356,
          0.006196678120746587,
          0.041654625764462105,
          -0.0057011443604678335,
          -0.2036595340751276,
          -0.041239765144560986,
          -0.03033180199926831,
          -0.028861135378874758,
          -0.029529762252739976,
          -0.1441933644866469,
          0.03960893157363672,
          -0.18110470973614412,
          -0.026673658975470003,
          -0.05835240997550071,
          -0.031213387734236372,
          -0.03975017770712576,
          -0.08184615044152922,
          -0.32725155347133855,
          0.27310770354670677
        ],
        [
          -0.028481028283771883,
          0.0033780775006524303,
          -0.05727314441041587,
          -0.054490742208603254,
          -0.06414619499493507,
          -0.13994597264433933,
          0.05261818246784833,
          -0.0409273166396268,
          0.32596685623333127,
          0.09075551671991235,
          -0.04616051418640765,
          0.03042265562239336,
          -0.013613323505031721,
          0.03787668101554213,
          -0.012839027895793389,
          -0.28053493857487677,
          -0.06054992300662048,
          -0.05040744106201828,
          -0.003469253181464501,
          -0.04634171861829937,
          -0.2089606539488345,
          0.051583876466400364,
          -0.20766463796892934,
          -0.04183343242894324,
          -0.08597052397650386,
          -0.049244296511128195,
          -0.05727101341632982,
          -0.1288393045033674,
          -0.44229565671972887,
          0.25559141932399787
        ],
        [
          -0.061440404329074084,
          -0.009350983871109974,
          -0.011657942894072437,
          -0.08888427904758156,
          -0.1140536834860743,
          -0.16862882934500628,
          0.01812381191185919,
          -0.06933779392608402,
          0.3855131459409691,
          0.11749729908980329,
          -0.07329196896149166,
          0.0630121353567318,
          -0.02405286417755276,
          0.02302996920235301,
          -0.039252068623960974,
          -0.29741151134223814,
          -0.11285822276324708,
          -0.08141410922193565,
          0.12373287329633764,
          -0.07489156775813184,
          -0.30794279347386744,
          0.06958891896098067,
          -0.23852556583146636,
          -0.0629859681359716,
          -0.1403268305291911,
          -0.0744846222991238,
          -0.10025987971654453,
          -0.20121217242985026,
          -0.44431687207876747,
          0.29853148238591926
        ],
        [
          -0.06427417486553036,
          0.005717096875343157,
          0.05848478119470974,
          -0.10546019461365373,
